{"learner":{"attributes":{},"feature_names":["UpstreamGUIDs_encoded","UpstreamNames_encoded","SumUpstreamNumParams","SumUpstreamNumInput","SumUpstreamNumOutput","CurrentGUID_encoded","CurrentName_encoded","CurrentNumParams","CurrentNumInput","CurrentNumOutput"],"feature_types":["int","int","int","int","int","int","int","int","int","int"],"gradient_booster":{"model":{"gbtree_model_param":{"num_parallel_tree":"1","num_trees":"1350"},"iteration_indptr":[0,45,90,135,180,225,270,315,360,405,450,495,540,585,630,675,720,765,810,855,900,945,990,1035,1080,1125,1170,1215,1260,1305,1350],"tree_info":[0,1,2,3,4,5,6,7,8,9,10,11,12,13,14,15,16,17,18,19,20,21,22,23,24,25,26,27,28,29,30,31,32,33,34,35,36,37,38,39,40,41,42,43,44,0,1,2,3,4,5,6,7,8,9,10,11,12,13,14,15,16,17,18,19,20,21,22,23,24,25,26,27,28,29,30,31,32,33,34,35,36,37,38,39,40,41,42,43,44,0,1,2,3,4,5,6,7,8,9,10,11,12,13,14,15,16,17,18,19,20,21,22,23,24,25,26,27,28,29,30,31,32,33,34,35,36,37,38,39,40,41,42,43,44,0,1,2,3,4,5,6,7,8,9,10,11,12,13,14,15,16,17,18,19,20,21,22,23,24,25,26,27,28,29,30,31,32,33,34,35,36,37,38,39,40,41,42,43,44,0,1,2,3,4,5,6,7,8,9,10,11,12,13,14,15,16,17,18,19,20,21,22,23,24,25,26,27,28,29,30,31,32,33,34,35,36,37,38,39,40,41,42,43,44,0,1,2,3,4,5,6,7,8,9,10,11,12,13,14,15,16,17,18,19,20,21,22,23,24,25,26,27,28,29,30,31,32,33,34,35,36,37,38,39,40,41,42,43,44,0,1,2,3,4,5,6,7,8,9,10,11,12,13,14,15,16,17,18,19,20,21,22,23,24,25,26,27,28,29,30,31,32,33,34,35,36,37,38,39,40,41,42,43,44,0,1,2,3,4,5,6,7,8,9,10,11,12,13,14,15,16,17,18,19,20,21,22,23,24,25,26,27,28,29,30,31,32,33,34,35,36,37,38,39,40,41,42,43,44,0,1,2,3,4,5,6,7,8,9,10,11,12,13,14,15,16,17,18,19,20,21,22,23,24,25,26,27,28,29,30,31,32,33,34,35,36,37,38,39,40,41,42,43,44,0,1,2,3,4,5,6,7,8,9,10,11,12,13,14,15,16,17,18,19,20,21,22,23,24,25,26,27,28,29,30,31,32,33,34,35,36,37,38,39,40,41,42,43,44,0,1,2,3,4,5,6,7,8,9,10,11,12,13,14,15,16,17,18,19,20,21,22,23,24,25,26,27,28,29,30,31,32,33,34,35,36,37,38,39,40,41,42,43,44,0,1,2,3,4,5,6,7,8,9,10,11,12,13,14,15,16,17,18,19,20,21,22,23,24,25,26,27,28,29,30,31,32,33,34,35,36,37,38,39,40,41,42,43,44,0,1,2,3,4,5,6,7,8,9,10,11,12,13,14,15,16,17,18,19,20,21,22,23,24,25,26,27,28,29,30,31,32,33,34,35,36,37,38,39,40,41,42,43,44,0,1,2,3,4,5,6,7,8,9,10,11,12,13,14,15,16,17,18,19,20,21,22,23,24,25,26,27,28,29,30,31,32,33,34,35,36,37,38,39,40,41,42,43,44,0,1,2,3,4,5,6,7,8,9,10,11,12,13,14,15,16,17,18,19,20,21,22,23,24,25,26,27,28,29,30,31,32,33,34,35,36,37,38,39,40,41,42,43,44,0,1,2,3,4,5,6,7,8,9,10,11,12,13,14,15,16,17,18,19,20,21,22,23,24,25,26,27,28,29,30,31,32,33,34,35,36,37,38,39,40,41,42,43,44,0,1,2,3,4,5,6,7,8,9,10,11,12,13,14,15,16,17,18,19,20,21,22,23,24,25,26,27,28,29,30,31,32,33,34,35,36,37,38,39,40,41,42,43,44,0,1,2,3,4,5,6,7,8,9,10,11,12,13,14,15,16,17,18,19,20,21,22,23,24,25,26,27,28,29,30,31,32,33,34,35,36,37,38,39,40,41,42,43,44,0,1,2,3,4,5,6,7,8,9,10,11,12,13,14,15,16,17,18,19,20,21,22,23,24,25,26,27,28,29,30,31,32,33,34,35,36,37,38,39,40,41,42,43,44,0,1,2,3,4,5,6,7,8,9,10,11,12,13,14,15,16,17,18,19,20,21,22,23,24,25,26,27,28,29,30,31,32,33,34,35,36,37,38,39,40,41,42,43,44,0,1,2,3,4,5,6,7,8,9,10,11,12,13,14,15,16,17,18,19,20,21,22,23,24,25,26,27,28,29,30,31,32,33,34,35,36,37,38,39,40,41,42,43,44,0,1,2,3,4,5,6,7,8,9,10,11,12,13,14,15,16,17,18,19,20,21,22,23,24,25,26,27,28,29,30,31,32,33,34,35,36,37,38,39,40,41,42,43,44,0,1,2,3,4,5,6,7,8,9,10,11,12,13,14,15,16,17,18,19,20,21,22,23,24,25,26,27,28,29,30,31,32,33,34,35,36,37,38,39,40,41,42,43,44,0,1,2,3,4,5,6,7,8,9,10,11,12,13,14,15,16,17,18,19,20,21,22,23,24,25,26,27,28,29,30,31,32,33,34,35,36,37,38,39,40,41,42,43,44,0,1,2,3,4,5,6,7,8,9,10,11,12,13,14,15,16,17,18,19,20,21,22,23,24,25,26,27,28,29,30,31,32,33,34,35,36,37,38,39,40,41,42,43,44,0,1,2,3,4,5,6,7,8,9,10,11,12,13,14,15,16,17,18,19,20,21,22,23,24,25,26,27,28,29,30,31,32,33,34,35,36,37,38,39,40,41,42,43,44,0,1,2,3,4,5,6,7,8,9,10,11,12,13,14,15,16,17,18,19,20,21,22,23,24,25,26,27,28,29,30,31,32,33,34,35,36,37,38,39,40,41,42,43,44,0,1,2,3,4,5,6,7,8,9,10,11,12,13,14,15,16,17,18,19,20,21,22,23,24,25,26,27,28,29,30,31,32,33,34,35,36,37,38,39,40,41,42,43,44,0,1,2,3,4,5,6,7,8,9,10,11,12,13,14,15,16,17,18,19,20,21,22,23,24,25,26,27,28,29,30,31,32,33,34,35,36,37,38,39,40,41,42,43,44,0,1,2,3,4,5,6,7,8,9,10,11,12,13,14,15,16,17,18,19,20,21,22,23,24,25,26,27,28,29,30,31,32,33,34,35,36,37,38,39,40,41,42,43,44],"trees":[{"base_weights":[4.4483915E-1,2.9955301E0,-2.0843457E-1,1.271402E0,1.8487152E1,-4.940464E-1,4.6835658E-1,5.1126666E0,-3.6700672E-1,6.3197455E0,-1.0438694E-1,-1.5003103E-1,1.9282584E-1,3.3697345E0,5.9474826E-2,-2.9340115E-1,1.7197556E1,-4.7832972E-1,9.761865E-1,-1.3857722E-1,5.59483E0,-3.9027902E-1,3.2153232E0,-1.4876422E-1,7.7236766E-1,6.166804E0,-1.0815732E-1,-2.785146E-1,-1.517455E-1,1.7497102E0,-1.3411984E-1,2.000407E0,4.891622E0,-4.7613484E-1,2.0374706E0,8.678792E0,1.0061622E0,2.4390016E-1,-1.4198507E-1,3.3511794E0,-1.4003788E-1,-1.5032315E-1,-2.4721794E-2,8.482559E-1,-8.804966E-2,-1.12837926E-1,4.679254E0,6.671598E-2,1.519439E0],"categories":[],"categories_nodes":[],"categories_segments":[],"categories_sizes":[],"default_left":[0,0,0,0,0,0,0,0,0,0,0,0,0,0,0,0,0,0,0,0,0,0,0,0,0,0,0,0,0,0,0,0,0,0,0,0,0,0,0,0,0,0,0,0,0,0,0,0,0],"id":0,"left_children":[1,3,5,7,9,11,13,15,17,-1,-1,-1,-1,19,21,23,25,27,29,-1,31,33,35,-1,-1,-1,-1,37,-1,-1,-1,39,-1,41,43,45,47,-1,-1,-1,-1,-1,-1,-1,-1,-1,-1,-1,-1],"loss_changes":[1.4600896E3,4.7481914E3,1.3519714E2,1.0203861E3,8.727295E2,3.7057037E0,2.462268E2,3.1706826E3,1.7569801E1,0E0,0E0,0E0,0E0,2.2118604E2,2.61116E2,2.1288713E1,8.915239E2,4.4296646E-1,6.538501E1,0E0,5.947821E2,3.4557198E1,2.6821478E2,0E0,0E0,0E0,0E0,3.5906868E0,0E0,0E0,0E0,3.0706686E2,0E0,1.495079E0,1.1314598E1,4.115502E2,5.4447144E1,0E0,0E0,0E0,0E0,0E0,0E0,0E0,0E0,0E0,0E0,0E0,0E0],"parents":[2147483647,0,0,1,1,2,2,3,3,4,4,5,5,6,6,7,7,8,8,13,13,14,14,15,15,16,16,17,17,18,18,20,20,21,21,22,22,27,27,31,31,33,33,34,34,35,35,36,36],"right_children":[2,4,6,8,10,12,14,16,18,-1,-1,-1,-1,20,22,24,26,28,30,-1,32,34,36,-1,-1,-1,-1,38,-1,-1,-1,40,-1,42,44,46,48,-1,-1,-1,-1,-1,-1,-1,-1,-1,-1,-1,-1],"split_conditions":[2.54E2,2.45E2,1.79E2,2.13E2,1.93E2,8E0,1.8E2,4.58E2,5E0,6.3197455E0,-1.0438694E-1,-1.5003103E-1,1.9282584E-1,2.63E2,4E0,5E0,9.4E1,5.2E1,5.13E2,-1.3857722E-1,9.46E2,1.166E3,6.9E1,-1.4876422E-1,7.7236766E-1,6.166804E0,-1.0815732E-1,4E0,-1.517455E-1,1.7497102E0,-1.3411984E-1,4.58E2,4.891622E0,1.101E3,6.87E2,5.2E1,1.004E3,2.4390016E-1,-1.4198507E-1,3.3511794E0,-1.4003788E-1,-1.5032315E-1,-2.4721794E-2,8.482559E-1,-8.804966E-2,-1.12837926E-1,4.679254E0,6.671598E-2,1.519439E0],"split_indices":[5,5,1,4,0,9,1,2,8,0,0,0,0,6,8,7,5,1,3,0,5,6,0,0,0,0,0,7,0,0,0,5,0,5,5,0,6,0,0,0,0,0,0,0,0,0,0,0,0],"split_type":[0,0,0,0,0,0,0,0,0,0,0,0,0,0,0,0,0,0,0,0,0,0,0,0,0,0,0,0,0,0,0,0,0,0,0,0,0,0,0,0,0,0,0,0,0,0,0,0,0],"sum_hessian":[8.7487213E2,1.7765137E2,6.9722076E2,1.6083359E2,1.681778E1,4.9049683E2,2.0672397E2,4.745482E1,1.1337877E2,1.4688396E1,2.1293828E0,4.8845435E2,2.0424693E0,2.4640001E1,1.8208397E2,3.346173E1,1.3993088E1,1.0529581E2,8.082964E0,9.34321E0,1.5296791E1,1.6013828E2,2.194568E1,3.2027657E1,1.4340742E0,1.1602963E1,2.3901236E0,1.4080001E1,9.1215805E1,1.1298766E0,6.953087E0,1.2341729E1,2.955062E0,1.5544495E2,4.6933336E0,5.475556E0,1.6470125E1,1.6513581E0,1.2428642E1,1.8686421E0,1.0473087E1,1.4592792E2,9.517037E0,3.346173E0,1.3471606E0,2.7812347E0,2.6943212E0,1.4688396E1,1.7817285E0],"tree_param":{"num_deleted":"0","num_feature":"10","num_nodes":"49","size_leaf_vector":"1"}},{"base_weights":[1.0054232E0,1.21083215E-1,6.917811E0,6.6168647E0,-3.1101236E-1,1.1008003E1,-1.4970876E-1,-1.2231078E-1,1.9373219E1,-1.5311894E-1,2.495542E-1,5.664348E0,2.0556768E1,-1.4758386E-1,1.3222841E0,6.287821E0,-8.4205836E-2,-2.632283E-1,1.3922023E0,1.2574539E1,2.6229274E0,6.337036E0,2.2805922E0,-1.20420516E-1,1.029572E0,3.958027E0,-3.8269868E-1,4.29101E0,5.672085E-1,1.5298597E1,9.2963195E-1,1.7351255E-2,6.4420156E0,-9.038345E-2,2.0381255E0,-1.2827437E-1,3.515894E-1,1.8966149E0,3.085786E-2,1.9687792E0,5.568239E0,-9.5548525E-2,6.073619E-1,-1.3017234E-1,8.139676E-1,3.6914551E0,7.785459E-1],"categories":[],"categories_nodes":[],"categories_segments":[],"categories_sizes":[],"default_left":[0,0,0,0,0,0,0,0,0,0,0,0,0,0,0,0,0,0,0,0,0,0,0,0,0,0,0,0,0,0,0,0,0,0,0,0,0,0,0,0,0,0,0,0,0,0,0],"id":1,"left_children":[1,3,5,7,9,11,-1,13,15,-1,17,19,21,-1,23,-1,-1,25,27,29,31,-1,-1,-1,-1,33,35,-1,37,39,41,43,45,-1,-1,-1,-1,-1,-1,-1,-1,-1,-1,-1,-1,-1,-1],"loss_changes":[4.5787134E3,2.1434429E3,3.4621387E3,4.096918E3,8.018667E1,3.6332012E3,0E0,1.7822289E1,5.193501E2,0E0,1.10874596E2,9.862964E2,3.0203125E1,0E0,2.6188992E1,0E0,0E0,6.759145E1,6.158621E2,4.4759473E2,3.4757114E2,0E0,0E0,0E0,0E0,4.6667614E1,9.455503E0,0E0,1.4927179E2,2.1259033E2,5.8715687E0,2.7664167E1,2.8759186E2,0E0,0E0,0E0,0E0,0E0,0E0,0E0,0E0,0E0,0E0,0E0,0E0,0E0,0E0],"parents":[2147483647,0,0,1,1,2,2,3,3,4,4,5,5,7,7,8,8,10,10,11,11,12,12,14,14,17,17,18,18,19,19,20,20,25,25,26,26,28,28,29,29,30,30,31,31,32,32],"right_children":[2,4,6,8,10,12,-1,14,16,-1,18,20,22,-1,24,-1,-1,26,28,30,32,-1,-1,-1,-1,34,36,-1,38,40,42,44,46,-1,-1,-1,-1,-1,-1,-1,-1,-1,-1,-1,-1,-1,-1],"split_conditions":[3E0,8.7E1,2.37E2,2.15E2,2E0,1.008E3,-1.4970876E-1,2.1E2,6.68E2,-1.5311894E-1,1.8E2,2.81E2,6.78E2,-1.4758386E-1,7.64E2,6.287821E0,-8.4205836E-2,2.18E2,1.83E2,7.43E2,2E0,6.337036E0,2.2805922E0,-1.20420516E-1,1.029572E0,6.64E2,1.139E3,4.29101E0,6.9E1,3.01E2,3E0,2.04E2,5.8E1,-9.038345E-2,2.0381255E0,-1.2827437E-1,3.515894E-1,1.8966149E0,3.085786E-2,1.9687792E0,5.568239E0,-9.5548525E-2,6.073619E-1,-1.3017234E-1,8.139676E-1,3.6914551E0,7.785459E-1],"split_indices":[9,4,0,2,9,2,0,2,5,0,1,6,6,0,5,0,0,3,1,2,8,0,0,0,0,5,5,0,0,3,8,0,0,0,0,0,0,0,0,0,0,0,0,0,0,0,0],"split_type":[0,0,0,0,0,0,0,0,0,0,0,0,0,0,0,0,0,0,0,0,0,0,0,0,0,0,0,0,0,0,0,0,0,0,0,0,0,0,0,0,0,0,0,0,0,0,0],"sum_hessian":[8.7487213E2,7.61928E2,1.1294421E2,4.662914E1,7.152988E2,7.248593E1,4.0458275E1,3.115852E1,1.5470618E1,5.2769586E2,1.8760298E2,4.7498276E1,2.4987656E1,2.533531E1,5.8232102E0,1.4253828E1,1.2167902E0,1.3002272E2,5.758025E1,1.3558519E1,3.3939754E1,2.3336298E1,1.6513581E0,3.6503706E0,2.1728396E0,2.6943212E0,1.273284E2,2.4770372E0,5.5103214E1,1.0733828E1,2.8246915E0,2.0772346E1,1.3167408E1,1.4340742E0,1.260247E0,1.2446025E2,2.8681483E0,3.1723459E0,5.1930866E1,3.7372842E0,6.996544E0,1.6513581E0,1.1733334E0,1.8512594E1,2.2597532E0,4.3456793E0,8.821729E0],"tree_param":{"num_deleted":"0","num_feature":"10","num_nodes":"47","size_leaf_vector":"1"}},{"base_weights":[2.74723E-1,-3.968109E-1,3.163616E0,-4.3298164E-1,5.588569E0,8.356783E0,-4.6544936E-1,1.4733803E0,-1.5274402E-1,3.5808024E0,-1.05711654E-1,1.5674458E1,-1.4857996E-1,-4.8486677E-1,4.9641468E-2,7.5437465E0,-3.9693075E-1,-1.1056026E-1,6.5002832E0,-3.6087355E-1,-1.5146947E-1,1.7992136E-1,-1.05711654E-1,-1.1739131E-1,4.6792912E0,2.0769231E-1,-1.4605477E-1,8.72595E-1,-1.3635616E-1,1.09227054E-1,-1.4305708E-1,5.0906456E-1,-8.4205836E-2],"categories":[],"categories_nodes":[],"categories_segments":[],"categories_sizes":[],"default_left":[0,0,0,0,0,0,0,0,0,0,0,0,0,0,0,0,0,0,0,0,0,0,0,0,0,0,0,0,0,0,0,0,0],"id":2,"left_children":[1,3,5,7,9,11,13,15,-1,-1,-1,17,-1,19,21,23,25,27,-1,29,-1,-1,-1,-1,-1,-1,-1,31,-1,-1,-1,-1,-1],"loss_changes":[1.7004381E3,1.5646977E2,3.1193813E3,1.0358186E2,1.6809904E2,4.416046E3,1.0068016E0,3.148196E2,0E0,0E0,0E0,3.5297656E3,0E0,5.3207397E-2,1.2013016E0,4.2272055E2,2.486517E0,4.2029457E0,0E0,1.5768003E0,0E0,0E0,0E0,0E0,0E0,0E0,0E0,3.5751243E0,0E0,0E0,0E0,0E0,0E0],"parents":[2147483647,0,0,1,1,2,2,3,3,4,4,5,5,6,6,7,7,11,11,13,13,14,14,15,15,16,16,17,17,19,19,27,27],"right_children":[2,4,6,8,10,12,14,16,-1,-1,-1,18,-1,20,22,24,26,28,-1,30,-1,-1,-1,-1,-1,-1,-1,32,-1,-1,-1,-1,-1],"split_conditions":[2.2E2,1.205E3,2.49E2,7.6E1,5.4E1,3.81E2,1.145E3,2.12E2,-1.5274402E-1,3.5808024E0,-1.05711654E-1,3.73E2,-1.4857996E-1,4E0,1.18E3,1.91E2,7E0,4.26E2,6.5002832E0,1.55E2,-1.5146947E-1,1.7992136E-1,-1.05711654E-1,-1.1739131E-1,4.6792912E0,2.0769231E-1,-1.4605477E-1,5.2E1,-1.3635616E-1,1.09227054E-1,-1.4305708E-1,5.0906456E-1,-8.4205836E-2],"split_indices":[1,6,1,4,1,5,5,5,0,0,0,5,0,7,5,5,1,6,0,0,0,0,0,0,0,0,0,0,0,0,0,0,0],"split_type":[0,0,0,0,0,0,0,0,0,0,0,0,0,0,0,0,0,0,0,0,0,0,0,0,0,0,0,0,0,0,0,0,0],"sum_hessian":[8.7487213E2,7.10562E2,1.6431013E2,7.072158E2,3.346173E0,6.705383E1,9.72563E1,2.6465187E1,6.807507E2,1.1298766E0,2.2162964E0,3.6286423E1,3.076741E1,9.377976E1,3.4765434E0,5.5190125E0,2.0946175E1,1.0255803E1,2.6030619E1,1.5687902E1,7.809186E1,1.260247E0,2.2162964E0,3.2592595E0,2.2597532E0,1.0864198E0,1.9859755E1,2.2597532E0,7.99605E0,1.8686421E0,1.381926E1,1.042963E0,1.2167902E0],"tree_param":{"num_deleted":"0","num_feature":"10","num_nodes":"33","size_leaf_vector":"1"}},{"base_weights":[-5.039295E-1,-1.5323183E-1,5.832792E-2,-1.3819367E-1,6.7883444E-1],"categories":[],"categories_nodes":[],"categories_segments":[],"categories_sizes":[],"default_left":[0,0,0,0,0],"id":3,"left_children":[1,-1,3,-1,-1],"loss_changes":[3.3998413E0,0E0,1.4118441E1,0E0,0E0],"parents":[2147483647,0,0,2,2],"right_children":[2,-1,4,-1,-1],"split_conditions":[7E0,-1.5323183E-1,1.131E3,-1.3819367E-1,6.7883444E-1],"split_indices":[8,0,5,0,0],"split_type":[0,0,0,0,0],"sum_hessian":[8.7487213E2,8.644425E2,1.042963E1,9.08247E0,1.3471606E0],"tree_param":{"num_deleted":"0","num_feature":"10","num_nodes":"5","size_leaf_vector":"1"}},{"base_weights":[-5.096381E-1],"categories":[],"categories_nodes":[],"categories_segments":[],"categories_sizes":[],"default_left":[0],"id":4,"left_children":[-1],"loss_changes":[0E0],"parents":[2147483647],"right_children":[-1],"split_conditions":[-1.5289143E-1],"split_indices":[0],"split_type":[0],"sum_hessian":[8.7487213E2],"tree_param":{"num_deleted":"0","num_feature":"10","num_nodes":"1","size_leaf_vector":"1"}},{"base_weights":[-5.096381E-1,-2.870024E-1,-1.5323278E-1,-1.2625645E-1,6.390532E-2],"categories":[],"categories_nodes":[],"categories_segments":[],"categories_sizes":[],"default_left":[0,0,0,0,0],"id":5,"left_children":[1,3,-1,-1,-1],"loss_changes":[7.5286865E-2,5.4050255E-1,0E0,0E0,0E0],"parents":[2147483647,0,0,1,1],"right_children":[2,4,-1,-1,-1],"split_conditions":[2E1,1.3E1,-1.5323278E-1,-1.2625645E-1,6.390532E-2],"split_indices":[3,3,0,0,0],"split_type":[0,0,0,0,0],"sum_hessian":[8.7487213E2,5.7362967E0,8.6913586E2,4.6498766E0,1.0864198E0],"tree_param":{"num_deleted":"0","num_feature":"10","num_nodes":"5","size_leaf_vector":"1"}},{"base_weights":[3.5742912E0,1.2605029E1,1.2408257E0,6.099821E0,1.8677408E1,1.3233891E1,5.622742E-1,1.541185E0,1.3692752E1,-1.2783039E-1,1.977363E1,3.781905E0,6.0766854E0,2.4028496E-1,9.132766E0,4.2173493E-1,4.5795946E0,6.330876E0,4.2249737E0,2.030477E1,5.2433996E0,1.0151504E1,-1.22568846E-1,1.2664704E0,-3.1915197E-1,1.8099756E1,-1.411521E-1,4.2355947E0,-4.0333742E-1,8.5712284E-1,9.363365E0,2.0942015E1,1.201367E1,3.8238117E-1,2.4682307E0,4.522005E0,3.5301583E0,-1.3772032E-1,3.2564235E-1,-1.5883206E-1,3.2462351E0,-4.9439496E-1,3.1774592E-1,5.9903917E0,-8.138187E-2,-1.4407684E-1,2.4075939E-1,9.135338E-1,3.0834207E-3,4.3069706E0,1.69747E-1,6.3708906E0,2.003246E-1,-2.921683E-2,5.3009367E0,-9.993114E-2,2.081087E0,1.064111E0,-1.20898075E-1,2.0507498E0,1.8885556E-1,-1.5103805E-1,-2.2388062E-2,5.178592E-1,-1.1164864E-1],"categories":[],"categories_nodes":[],"categories_segments":[],"categories_sizes":[],"default_left":[0,0,0,0,0,0,0,0,0,0,0,0,0,0,0,0,0,0,0,0,0,0,0,0,0,0,0,0,0,0,0,0,0,0,0,0,0,0,0,0,0,0,0,0,0,0,0,0,0,0,0,0,0,0,0,0,0,0,0,0,0,0,0,0,0],"id":6,"left_children":[1,3,5,7,9,11,13,15,17,-1,19,21,-1,23,25,27,-1,-1,29,31,33,35,37,39,41,43,-1,-1,45,47,49,51,53,-1,-1,-1,55,-1,-1,57,59,61,63,-1,-1,-1,-1,-1,-1,-1,-1,-1,-1,-1,-1,-1,-1,-1,-1,-1,-1,-1,-1,-1,-1],"loss_changes":[1.844154E4,6.98609E3,5.665777E3,3.0339187E3,1.9450449E3,2.398067E3,1.8214856E3,8.581732E2,2.2249404E3,0E0,5.6866016E2,4.2707886E2,0E0,3.6664026E2,2.066753E3,6.0533673E2,0E0,0E0,2.6421942E2,1.9246094E2,4.2014435E1,1.5923834E2,5.215172E0,6.36204E2,4.6327103E1,4.305061E2,0E0,0E0,5.117606E0,1.9616632E1,2.6106262E2,4.4345703E2,5.733119E2,0E0,0E0,0E0,5.608055E1,0E0,0E0,1.2080853E2,8.818772E2,1.1983719E0,8.796845E1,0E0,0E0,0E0,0E0,0E0,0E0,0E0,0E0,0E0,0E0,0E0,0E0,0E0,0E0,0E0,0E0,0E0,0E0,0E0,0E0,0E0,0E0],"parents":[2147483647,0,0,1,1,2,2,3,3,4,4,5,5,6,6,7,7,8,8,10,10,11,11,13,13,14,14,15,15,18,18,19,19,20,20,21,21,22,22,23,23,24,24,25,25,28,28,29,29,30,30,31,31,32,32,36,36,39,39,40,40,41,41,42,42],"right_children":[2,4,6,8,10,12,14,16,18,-1,20,22,-1,24,26,28,-1,-1,30,32,34,36,38,40,42,44,-1,-1,46,48,50,52,54,-1,-1,-1,56,-1,-1,58,60,62,64,-1,-1,-1,-1,-1,-1,-1,-1,-1,-1,-1,-1,-1,-1,-1,-1,-1,-1,-1,-1,-1,-1],"split_conditions":[8.8E1,5.55E2,4.9E1,6.77E2,1.86E2,8.46E2,1.142E3,5E0,7.59E2,-1.2783039E-1,3E0,3.64E2,6.0766854E0,3.8E2,3.96E2,6E0,4.5795946E0,6.330876E0,1.97E2,4E0,4.28E2,5.11E2,8.38E2,7.64E2,1.62E2,1.198E3,-1.411521E-1,4.2355947E0,6E0,1.42E2,3.87E2,2.76E2,6E0,3.8238117E-1,2.4682307E0,4.522005E0,1.093E3,-1.3772032E-1,3.2564235E-1,7.2E1,9.46E2,1.145E3,1.7E2,5.9903917E0,-8.138187E-2,-1.4407684E-1,2.4075939E-1,9.135338E-1,3.0834207E-3,4.3069706E0,1.69747E-1,6.3708906E0,2.003246E-1,-2.921683E-2,5.3009367E0,-9.993114E-2,2.081087E0,1.064111E0,-1.20898075E-1,2.0507498E0,1.8885556E-1,-1.5103805E-1,-2.2388062E-2,5.178592E-1,-1.1164864E-1],"split_indices":[0,6,1,5,3,6,6,9,5,0,9,6,0,3,3,0,0,0,6,8,5,5,5,5,1,6,0,0,7,1,6,1,7,0,0,0,5,0,0,5,5,5,1,0,0,0,0,0,0,0,0,0,0,0,0,0,0,0,0,0,0,0,0,0,0],"split_type":[0,0,0,0,0,0,0,0,0,0,0,0,0,0,0,0,0,0,0,0,0,0,0,0,0,0,0,0,0,0,0,0,0,0,0,0,0,0,0,0,0,0,0,0,0,0,0,0,0,0,0,0,0,0,0,0,0,0,0,0,0,0,0,0,0],"sum_hessian":[8.7487213E2,1.787378E2,6.9613434E2,8.726124E1,9.147655E1,3.6286423E1,6.5984796E2,5.527704E1,3.19842E1,4.997531E0,8.647902E1,1.612247E1,2.0163952E1,6.369462E2,2.290173E1,5.2061237E1,3.2158027E0,1.7252346E1,1.4731853E1,8.304593E1,3.4330866E0,5.5190125E0,1.0603457E1,2.242805E2,4.126657E2,1.1385679E1,1.151605E1,2.0424693E0,5.001877E1,9.603951E0,5.1279016E0,7.570174E1,7.344198E0,2.085926E0,1.3471606E0,2.4335804E0,3.0854323E0,8.778273E0,1.8251853E0,1.3093532E2,9.334519E1,3.2379657E2,8.886914E1,1.0255803E1,1.1298766E0,4.758519E1,2.4335804E0,1.9555557E0,7.6483955E0,2.8681483E0,2.2597532E0,7.457185E1,1.1298766E0,2.6508644E0,4.6933336E0,1.8686421E0,1.2167902E0,7.257284E0,1.2367803E2,3.8676544E1,5.4668644E1,3.1675656E2,7.0400004E0,2.872494E1,6.0144203E1],"tree_param":{"num_deleted":"0","num_feature":"10","num_nodes":"65","size_leaf_vector":"1"}},{"base_weights":[1.1995155E0,6.9125503E-1,4.592111E0,4.211454E0,4.4891545E-1,3.1672173E0,1.55424385E1,-1.4929953E-1,1.773242E1,3.4595664E0,1.3419941E-1,1.8246169E0,1.160979E1,-1.1088296E-1,5.887115E0,5.9001846E0,-8.4205836E-2,2.1338955E-2,6.154905E0,3.8541205E0,5.9522472E-2,6.5895753E0,6.7359525E-1,1.3764571E1,-1.0369659E-1,-1.5017045E-1,2.285753E0,-3.0164754E-1,1.0555403E0,-3.2736126E-1,1.1592552E1,2.5696443E-2,3.5348775E0,4.70518E0,-8.923776E-2,3.4159446E0,-1.3699065E-1,1.8013558E-1,-1.0401579E-1,-1.09720744E-1,8.91548E-1,-1.320157E-1,6.8527915E-2,-1.0150376E-1,4.356222E0,1.6351187E0,-5.9445526E-2,-1.6909728E-2,1.6062386E0],"categories":[],"categories_nodes":[],"categories_segments":[],"categories_sizes":[],"default_left":[0,0,0,0,0,0,0,0,0,0,0,0,0,0,0,0,0,0,0,0,0,0,0,0,0,0,0,0,0,0,0,0,0,0,0,0,0,0,0,0,0,0,0,0,0,0,0,0,0],"id":7,"left_children":[1,3,5,7,9,11,13,-1,15,17,19,21,23,-1,-1,-1,-1,25,-1,-1,27,29,31,33,-1,-1,35,37,39,41,43,45,47,-1,-1,-1,-1,-1,-1,-1,-1,-1,-1,-1,-1,-1,-1,-1,-1],"loss_changes":[1.5071116E3,6.489507E2,1.7286511E3,3.1300024E3,6.769114E2,1.1358993E3,8.4264136E2,0E0,4.4779956E2,3.9650999E3,6.146936E2,4.8511816E2,3.6077356E2,0E0,0E0,0E0,0E0,6.883439E1,0E0,0E0,2.3252802E2,6.008342E2,1.3525278E2,3.2136255E2,0E0,0E0,2.7744214E2,1.9501179E1,4.69548E2,6.149703E-1,3.5563513E2,7.458919E1,8.832007E1,0E0,0E0,0E0,0E0,0E0,0E0,0E0,0E0,0E0,0E0,0E0,0E0,0E0,0E0,0E0,0E0],"parents":[2147483647,0,0,1,1,2,2,3,3,4,4,5,5,6,6,8,8,9,9,10,10,11,11,12,12,17,17,20,20,21,21,22,22,23,23,26,26,27,27,28,28,29,29,30,30,31,31,32,32],"right_children":[2,4,6,8,10,12,14,-1,16,18,20,22,24,-1,-1,-1,-1,26,-1,-1,28,30,32,34,-1,-1,36,38,40,42,44,46,48,-1,-1,-1,-1,-1,-1,-1,-1,-1,-1,-1,-1,-1,-1,-1,-1],"split_conditions":[3E0,8.7E1,2.98E2,9.02E2,1.14E2,9.06E2,2.2E1,-1.4929953E-1,1.052E3,1.13E2,8E0,2.48E2,1.68E2,-1.1088296E-1,5.887115E0,5.9001846E0,-8.4205836E-2,3E0,6.154905E0,3.8541205E0,1.79E2,8.3E1,5.7E2,1.688E3,-1.0369659E-1,-1.5017045E-1,8.14E2,1.97E2,7.68E2,7E0,5E0,2.6E1,5E0,4.70518E0,-8.923776E-2,3.4159446E0,-1.3699065E-1,1.8013558E-1,-1.0401579E-1,-1.09720744E-1,8.91548E-1,-1.320157E-1,6.8527915E-2,-1.0150376E-1,4.356222E0,1.6351187E0,-5.9445526E-2,-1.6909728E-2,1.6062386E0],"split_indices":[9,6,1,5,5,6,5,0,5,5,1,6,1,0,0,0,0,8,0,0,1,6,6,2,0,0,2,3,6,8,7,1,7,0,0,0,0,0,0,0,0,0,0,0,0,0,0,0,0],"split_type":[0,0,0,0,0,0,0,0,0,0,0,0,0,0,0,0,0,0,0,0,0,0,0,0,0,0,0,0,0,0,0,0,0,0,0,0,0,0,0,0,0,0,0,0,0,0,0,0,0],"sum_hessian":[8.7487213E2,7.61928E2,1.1294421E2,4.8019756E1,7.139082E2,1.010805E2,1.1863705E1,3.632988E1,1.16898775E1,6.661926E1,6.4728894E2,8.826075E1,1.2819754E1,2.6074076E0,9.256297E0,1.0473087E1,1.2167902E0,5.6276546E1,1.0342716E1,2.7812347E0,6.445077E2,1.625284E1,7.2007904E1,1.0733828E1,2.085926E0,4.6368397E1,9.908149E0,4.7350522E2,1.7100249E2,7.2138276E0,9.039013E0,5.9535805E1,1.2472099E1,9.34321E0,1.3906174E0,1.5644445E0,8.343704E0,2.194568E1,4.5155954E2,9.864692E1,7.235556E1,6.1708646E0,1.042963E0,1.9555557E0,7.083457E0,1.4340742E0,5.810173E1,4.5195065E0,7.952593E0],"tree_param":{"num_deleted":"0","num_feature":"10","num_nodes":"49","size_leaf_vector":"1"}},{"base_weights":[-5.039295E-1,4.615214E-1,-1.532328E-1,-1.256151E-1,7.4539876E-1],"categories":[],"categories_nodes":[],"categories_segments":[],"categories_sizes":[],"default_left":[0,0,0,0,0],"id":8,"left_children":[1,3,-1,-1,-1],"loss_changes":[6.025177E0,1.29592905E1,0E0,0E0,0E0],"parents":[2147483647,0,0,1,1],"right_children":[2,4,-1,-1,-1],"split_conditions":[1.9E1,6.4E1,-1.532328E-1,-1.256151E-1,7.4539876E-1],"split_indices":[3,1,0,0,0],"split_type":[0,0,0,0,0],"sum_hessian":[8.7487213E2,5.6928396E0,8.691793E2,4.5195065E0,1.1733334E0],"tree_param":{"num_deleted":"0","num_feature":"10","num_nodes":"5","size_leaf_vector":"1"}},{"base_weights":[-5.0849634E-1,-3.724494E-1,-1.5323046E-1,-1.4435768E-1,2.003246E-1],"categories":[],"categories_nodes":[],"categories_segments":[],"categories_sizes":[],"default_left":[0,0,0,0,0],"id":9,"left_children":[1,3,-1,-1,-1],"loss_changes":[8.047485E-2,2.3662515E0,0E0,0E0,0E0],"parents":[2147483647,0,0,1,1],"right_children":[2,4,-1,-1,-1],"split_conditions":[2.6E1,6.89E2,-1.5323046E-1,-1.4435768E-1,2.003246E-1],"split_indices":[1,2,0,0,0],"split_type":[0,0,0,0,0],"sum_hessian":[8.7487213E2,1.707852E1,8.5779364E2,1.5948643E1,1.1298766E0],"tree_param":{"num_deleted":"0","num_feature":"10","num_nodes":"5","size_leaf_vector":"1"}},{"base_weights":[9.3463665E-1,-4.9346957E-2,1.113059E1,2.8577266E0,-2.864619E-1,6.4725347E0,-4.4447803E-1,-1.4980325E-1,1.0278847E1,4.08716E0,-4.3395534E-1,-1.4916618E-1,1.6174343E-1,-1.2686886E-1,1.394206E1,5.590944E0,-1.4551185E-1,-4.8818046E-1,6.1734476E0,1.7270428E1,6.5767803E0,-3.06651E-1,-1.5316656E-1,-1.1664102E-1,4.1753836E0,2.4360144E0,5.7543883E0,-1.1664102E-1,4.3607764E0,-1.5148006E-1,2.17227E0],"categories":[],"categories_nodes":[],"categories_segments":[],"categories_sizes":[],"default_left":[0,0,0,0,0,0,0,0,0,0,0,0,0,0,0,0,0,0,0,0,0,0,0,0,0,0,0,0,0,0,0],"id":10,"left_children":[1,3,5,7,9,-1,11,-1,13,15,17,-1,-1,-1,19,-1,-1,21,23,25,27,29,-1,-1,-1,-1,-1,-1,-1,-1,-1],"loss_changes":[8.78787E3,5.521149E2,9.329814E3,1.5100267E3,4.793745E2,0E0,2.2159739E0,0E0,7.452893E2,1.6221664E3,2.5995026E2,0E0,0E0,0E0,2.3159058E2,0E0,0E0,2.7362366E0,3.0579678E2,3.0637207E0,3.3815506E2,1.2436214E2,0E0,0E0,0E0,0E0,0E0,0E0,0E0,0E0,0E0],"parents":[2147483647,0,0,1,1,2,2,3,3,4,4,6,6,8,8,9,9,10,10,14,14,17,17,18,18,19,19,20,20,21,21],"right_children":[2,4,6,8,10,-1,12,-1,14,16,18,-1,-1,-1,20,-1,-1,22,24,26,28,30,-1,-1,-1,-1,-1,-1,-1,-1,-1],"split_conditions":[1.131E3,2.45E2,1.142E3,1.8E2,4.1E1,6.4725347E0,1.15E3,-1.4980325E-1,2.12E2,5.5E1,2.96E2,-1.4916618E-1,1.6174343E-1,-1.2686886E-1,4.13E2,5.590944E0,-1.4551185E-1,5.5E1,3E0,5E0,2.04E2,5.2E1,-1.5316656E-1,-1.1664102E-1,4.1753836E0,2.4360144E0,5.7543883E0,-1.1664102E-1,4.3607764E0,-1.5148006E-1,2.17227E0],"split_indices":[6,2,6,2,6,0,5,0,5,1,1,0,0,0,6,0,0,1,9,7,0,1,0,0,0,0,0,0,0,0,0],"split_type":[0,0,0,0,0,0,0,0,0,0,0,0,0,0,0,0,0,0,0,0,0,0,0,0,0,0,0,0,0,0,0],"sum_hessian":[8.7487213E2,7.987793E2,7.609284E1,5.9405437E1,7.393739E2,3.954568E1,3.654716E1,4.1544693E1,1.7860743E1,2.3249384E1,7.161245E2,3.5156544E1,1.3906174E0,4.780247E0,1.3080495E1,4.823704E0,1.842568E1,7.1121387E2,4.910618E0,8.082964E0,4.997531E0,7.96563E1,6.3155756E2,3.1723459E0,1.7382717E0,2.30321E0,5.7797537E0,3.1723459E0,1.8251853E0,7.852643E1,1.1298766E0],"tree_param":{"num_deleted":"0","num_feature":"10","num_nodes":"31","size_leaf_vector":"1"}},{"base_weights":[-3.4066364E-1,2.9953012E0,-4.5183304E-1,5.255301E0,-1.4697908E-1,-3.619282E-2,-4.9508226E-1,3.3447547E0,-4.2291358E-1,-1.5320353E-1,2.8781567E-2,3.408476E0,-1.3048771E-1,1.5453763E-1,-1.5104306E-1,1.1751442E0,-1.4621954E-1,7.1083677E-1,-1.3539916E-1],"categories":[],"categories_nodes":[],"categories_segments":[],"categories_sizes":[],"default_left":[0,0,0,0,0,0,0,0,0,0,0,0,0,0,0,0,0,0,0],"id":11,"left_children":[1,3,5,-1,-1,7,9,11,13,-1,15,-1,-1,17,-1,-1,-1,-1,-1],"loss_changes":[3.261769E2,1.4448901E3,1.5234726E1,0E0,0E0,1.0738263E2,6.293091E0,2.604157E2,3.5025368E0,0E0,4.8399517E1,0E0,0E0,1.4191344E1,0E0,0E0,0E0,0E0,0E0],"parents":[2147483647,0,0,1,1,2,2,5,5,6,6,7,7,8,8,10,10,13,13],"right_children":[2,4,6,-1,-1,8,10,12,14,-1,16,-1,-1,18,-1,-1,-1,-1,-1],"split_conditions":[6.5E1,8.9E1,1.39E2,5.255301E0,-1.4697908E-1,1.98E2,2.94E2,1.13E2,1.8E2,-1.5320353E-1,1.53E2,3.408476E0,-1.3048771E-1,1.02E2,-1.5104306E-1,1.1751442E0,-1.4621954E-1,7.1083677E-1,-1.3539916E-1],"split_indices":[5,6,6,0,0,5,1,0,2,0,0,0,0,6,0,0,0,0,0],"split_type":[0,0,0,0,0,0,0,0,0,0,0,0,0,0,0,0,0,0,0],"sum_hessian":[8.7487213E2,2.7377779E1,8.474944E2,4.5195065E0,2.2858273E1,8.004741E1,7.6744696E2,7.4311113E0,7.26163E1,7.45284E2,2.2162964E1,1.7382717E0,5.6928396E0,8.778273E0,6.3838028E1,1.8251853E0,2.033778E1,1.260247E0,7.5180254E0],"tree_param":{"num_deleted":"0","num_feature":"10","num_nodes":"19","size_leaf_vector":"1"}},{"base_weights":[-2.9271144E-1,1.4477075E0,-5.081445E-1,-1.5167183E-1,5.87519E0,-1.4316015E-2,-1.5282622E-1],"categories":[],"categories_nodes":[],"categories_segments":[],"categories_sizes":[],"default_left":[0,0,0,0,0,0,0],"id":12,"left_children":[1,3,5,-1,-1,-1,-1],"loss_changes":[3.2913846E2,3.436768E3,4.340973E-1,0E0,0E0,0E0,0E0],"parents":[2147483647,0,0,1,1,2,2],"right_children":[2,4,6,-1,-1,-1,-1],"split_conditions":[1.45E2,1.39E2,1.54E2,-1.5167183E-1,5.87519E0,-1.4316015E-2,-1.5282622E-1],"split_indices":[6,6,6,0,0,0,0],"split_type":[0,0,0,0,0,0,0],"sum_hessian":[8.7487213E2,9.573531E1,7.7913684E2,8.7304695E1,8.430618E0,2.2597532E0,7.768771E2],"tree_param":{"num_deleted":"0","num_feature":"10","num_nodes":"7","size_leaf_vector":"1"}},{"base_weights":[-5.0849634E-1,-1.5323357E-1,1.1326691E-1],"categories":[],"categories_nodes":[],"categories_segments":[],"categories_sizes":[],"default_left":[0,0,0],"id":13,"left_children":[1,-1,-1],"loss_changes":[1.9640045E0,0E0,0E0],"parents":[2147483647,0,0],"right_children":[2,-1,-1],"split_conditions":[1.6E1,-1.5323357E-1,1.1326691E-1],"split_indices":[7,0,0],"split_type":[0,0,0],"sum_hessian":[8.7487213E2,8.73047E2,1.8251853E0],"tree_param":{"num_deleted":"0","num_feature":"10","num_nodes":"3","size_leaf_vector":"1"}},{"base_weights":[-5.0164604E-1,-1.5322712E-1,-2.6026717E-1,1.9062982E0,-1.4851975E-1,-9.1488935E-2,1.0964466E0],"categories":[],"categories_nodes":[],"categories_segments":[],"categories_sizes":[],"default_left":[0,0,0,0,0,0,0],"id":14,"left_children":[1,-1,3,5,-1,-1,-1],"loss_changes":[1.7932892E0,0E0,1.8187267E1,1.47263775E1,0E0,0E0,0E0],"parents":[2147483647,0,0,2,2,3,3],"right_children":[2,-1,4,6,-1,-1,-1],"split_conditions":[5E0,-1.5322712E-1,4.9E1,5.11E2,-1.4851975E-1,-9.1488935E-2,1.0964466E0],"split_indices":[8,0,1,5,0,0,0],"split_type":[0,0,0,0,0,0,0],"sum_hessian":[8.7487213E2,8.4197534E2,3.2896793E1,2.520494E0,3.0376299E1,1.477531E0,1.042963E0],"tree_param":{"num_deleted":"0","num_feature":"10","num_nodes":"7","size_leaf_vector":"1"}},{"base_weights":[-5.096381E-1],"categories":[],"categories_nodes":[],"categories_segments":[],"categories_sizes":[],"default_left":[0],"id":15,"left_children":[-1],"loss_changes":[0E0],"parents":[2147483647],"right_children":[-1],"split_conditions":[-1.5289143E-1],"split_indices":[0],"split_type":[0],"sum_hessian":[8.7487213E2],"tree_param":{"num_deleted":"0","num_feature":"10","num_nodes":"1","size_leaf_vector":"1"}},{"base_weights":[-1.14603244E-1,1.0848612E0,-3.16179E-1,-2.813356E-1,6.6200747E0,1.5715023E0,-4.3292388E-1,5.243563E0,-1.5186146E-1,1.4037835E1,-1.8997361E-1,9.057916E0,-2.2272696E-1,1.1623834E0,-4.493126E-1,-1.0298653E-1,3.2991297E0,-1.14190124E-1,5.610504E0,-1.4136125E-1,4.340836E-1,7.2682875E-1,5.1652174E0,-1.4882454E-1,6.4390063E-1,-1.2955855E-1,1.683829E0,-4.632771E-1,-7.0619605E-2,-1.1088296E-1,5.833489E-1,-4.710396E-1,-1.7987782E-1,-1.4695556E-1,2.9282868E0,-1.4407648E-1,-1.13137014E-1,3.2564235E-1,-1.1112497E-1,-8.553638E-2,1.5017751E0],"categories":[],"categories_nodes":[],"categories_segments":[],"categories_sizes":[],"default_left":[0,0,0,0,0,0,0,0,0,0,0,0,0,0,0,0,0,0,0,0,0,0,0,0,0,0,0,0,0,0,0,0,0,0,0,0,0,0,0,0,0],"id":16,"left_children":[1,3,5,7,9,11,13,15,-1,17,19,21,23,25,27,-1,-1,-1,-1,-1,-1,29,-1,-1,-1,-1,-1,31,33,-1,-1,35,37,-1,39,-1,-1,-1,-1,-1,-1],"loss_changes":[2.1211397E2,9.565321E2,1.6610196E2,1.2963905E2,1.2671461E3,5.9217163E2,1.9024979E1,1.3509792E2,0E0,8.136987E2,7.143779E0,5.665183E2,2.4648397E1,5.5459476E1,3.6755066E0,0E0,0E0,0E0,0E0,0E0,0E0,7.73967E0,0E0,0E0,0E0,0E0,0E0,1.4026184E0,3.427101E1,0E0,0E0,3.8789368E-1,5.1379695E0,0E0,2.3770555E1,0E0,0E0,0E0,0E0,0E0,0E0],"parents":[2147483647,0,0,1,1,2,2,3,3,4,4,5,5,6,6,7,7,9,9,10,10,11,11,12,12,13,13,14,14,21,21,27,27,28,28,31,31,32,32,34,34],"right_children":[2,4,6,8,10,12,14,16,-1,18,20,22,24,26,28,-1,-1,-1,-1,-1,-1,30,-1,-1,-1,-1,-1,32,34,-1,-1,36,38,-1,40,-1,-1,-1,-1,-1,-1],"split_conditions":[5.2E1,2E0,1.35E2,2.27E2,5E0,1.29E2,1.5E1,8E0,-1.5186146E-1,2E0,4.32E2,8.6E1,2.15E2,2.74E2,1.156E3,-1.0298653E-1,3.2991297E0,-1.14190124E-1,5.610504E0,-1.4136125E-1,4.340836E-1,2.2E1,5.1652174E0,-1.4882454E-1,6.4390063E-1,-1.2955855E-1,1.683829E0,1.145E3,8.9E2,-1.1088296E-1,5.833489E-1,1.052E3,5.2E1,-1.4695556E-1,5.2E1,-1.4407648E-1,-1.13137014E-1,3.2564235E-1,-1.1112497E-1,-8.553638E-2,1.5017751E0],"split_indices":[1,9,3,4,7,5,0,1,0,8,5,5,2,2,6,0,0,0,0,0,0,5,0,0,0,0,0,5,5,0,0,5,0,0,0,0,0,0,0,0,0],"split_type":[0,0,0,0,0,0,0,0,0,0,0,0,0,0,0,0,0,0,0,0,0,0,0,0,0,0,0,0,0,0,0,0,0,0,0,0,0,0,0,0,0],"sum_hessian":[8.7487213E2,1.2524248E2,7.496297E2,1.0121087E2,2.4031607E1,4.293531E1,7.0669434E2,3.0854323E0,9.8125435E1,1.0994569E1,1.3037038E1,7.5180254E0,3.5417286E1,6.4750624E0,7.002193E2,2.0424693E0,1.042963E0,2.9116051E0,8.082964E0,1.1733334E1,1.3037038E0,4.2587657E0,3.2592595E0,3.2462223E1,2.955062E0,5.4320993E0,1.042963E0,6.7510126E2,2.5118027E1,2.6074076E0,1.6513581E0,6.564583E2,1.8642963E1,2.2771358E1,2.3466668E0,5.940544E2,6.2403954E1,1.8251853E0,1.681778E1,1.260247E0,1.0864198E0],"tree_param":{"num_deleted":"0","num_feature":"10","num_nodes":"41","size_leaf_vector":"1"}},{"base_weights":[1.0431E0,-3.955956E-1,3.548114E0,9.272344E-1,-4.6329987E-1,6.1165943E0,2.6321087E0,3.5594854E0,-7.135172E-2,2.5811397E-2,-5.0825477E-1,2.0449126E0,1.2825752E1,-2.8769264E-1,6.2144953E-1,-1.4996843E-1,3.4459753E0,-3.2338306E-1,-1.530889E-1,-1.12795316E-1,3.7679236E0,1.8207682E1,7.2315556E-1,-1.468476E-1,5.7810795E-1,4.719248E-2,-1.3078156E-1,-3.727493E-1,4.7689626E-1,1.6933794E0,9.316316E0,5.924633E0,1.085209E0,6.695221E-1,-1.1811158E-1,-1.3328907E-1,9.468276E-2,5.153655E-2,1.7116565E0,4.7033296E0,3.6775282E-1,4.67769E0,7.4034894E-1],"categories":[],"categories_nodes":[],"categories_segments":[],"categories_sizes":[],"default_left":[0,0,0,0,0,0,0,0,0,0,0,0,0,0,0,0,0,0,0,0,0,0,0,0,0,0,0,0,0,0,0,0,0,0,0,0,0,0,0,0,0,0,0],"id":17,"left_children":[1,3,5,7,9,-1,11,-1,13,15,17,19,21,23,-1,-1,-1,25,-1,27,29,31,33,-1,-1,-1,-1,35,37,39,41,-1,-1,-1,-1,-1,-1,-1,-1,-1,-1,-1,-1],"loss_changes":[3.1580056E3,5.0337296E1,4.876879E3,3.0082828E2,1.1683929E1,0E0,1.7951216E3,0E0,1.2724056E1,2.8066354E2,1.8463135E-2,1.0744888E3,1.0539907E3,1.1955813E1,0E0,0E0,0E0,5.0357634E-1,0E0,1.998946E1,1.8334851E3,1.8262646E2,1.1130202E1,0E0,0E0,0E0,0E0,4.585575E0,6.2800896E1,7.5333374E2,1.8312256E3,0E0,0E0,0E0,0E0,0E0,0E0,0E0,0E0,0E0,0E0,0E0,0E0],"parents":[2147483647,0,0,1,1,2,2,3,3,4,4,6,6,8,8,9,9,10,10,11,11,12,12,13,13,17,17,19,19,20,20,21,21,22,22,27,27,28,28,29,29,30,30],"right_children":[2,4,6,8,10,-1,12,-1,14,16,18,20,22,24,-1,-1,-1,26,-1,28,30,32,34,-1,-1,-1,-1,36,38,40,42,-1,-1,-1,-1,-1,-1,-1,-1,-1,-1,-1,-1],"split_conditions":[1.61E2,7.6E1,1.62E2,1.53E2,1.08E2,6.1165943E0,6.45E2,3.5594854E0,1.037E3,1E2,1.75E2,1.13E2,7.25E2,9.2E1,6.2144953E-1,-1.4996843E-1,3.4459753E0,7.13E2,-1.530889E-1,7.69E2,7.93E2,6.32E2,9.21E2,-1.468476E-1,5.7810795E-1,4.719248E-2,-1.3078156E-1,1.11E2,1.109E3,2.2E1,9.43E2,5.924633E0,1.085209E0,6.695221E-1,-1.1811158E-1,-1.3328907E-1,9.468276E-2,5.153655E-2,1.7116565E0,4.7033296E0,3.6775282E-1,4.67769E0,7.4034894E-1],"split_indices":[1,4,1,5,6,0,3,0,6,6,6,0,6,1,0,0,0,2,0,5,6,5,5,0,0,0,0,0,2,5,6,0,0,0,0,0,0,0,0,0,0,0,0],"split_type":[0,0,0,0,0,0,0,0,0,0,0,0,0,0,0,0,0,0,0,0,0,0,0,0,0,0,0,0,0,0,0,0,0,0,0,0,0,0,0,0,0,0,0],"sum_hessian":[8.7487213E2,5.5624695E2,3.186252E2,2.6465187E1,5.2978174E2,1.5340248E1,3.0328494E2,1.3037038E0,2.5161484E1,4.4630127E1,4.8515164E2,2.8790125E2,1.5383705E1,2.3640495E1,1.5209877E0,4.3587162E1,1.042963E0,7.0400004E0,4.7811163E2,1.28241E2,1.5966026E2,1.029926E1,5.084445E0,2.2380249E1,1.260247E0,1.260247E0,5.7797537E0,8.9260254E1,3.8980743E1,1.17159515E2,4.2500744E1,8.995556E0,1.3037038E0,1.7382717E0,3.346173E0,8.117729E1,8.082964E0,3.780741E1,1.1733334E0,2.737778E0,1.1442174E2,2.1511112E1,2.0989632E1],"tree_param":{"num_deleted":"0","num_feature":"10","num_nodes":"43","size_leaf_vector":"1"}},{"base_weights":[-5.062129E-1,-1.532335E-1,8.912943E-1,5.0906456E-1,-8.2822084E-2],"categories":[],"categories_nodes":[],"categories_segments":[],"categories_sizes":[],"default_left":[0,0,0,0,0],"id":18,"left_children":[1,-1,3,-1,-1],"loss_changes":[6.043457E0,0E0,3.4931238E0,0E0,0E0],"parents":[2147483647,0,0,2,2],"right_children":[2,-1,4,-1,-1],"split_conditions":[1E1,-1.532335E-1,1.288E3,5.0906456E-1,-8.2822084E-2],"split_indices":[8,0,2,0,0],"split_type":[0,0,0,0,0],"sum_hessian":[8.7487213E2,8.726559E2,2.2162964E0,1.042963E0,1.1733334E0],"tree_param":{"num_deleted":"0","num_feature":"10","num_nodes":"5","size_leaf_vector":"1"}},{"base_weights":[-5.0278777E-1,-2.4667189E-1,-1.532283E-1,-1.4778793E-1,9.266272E-1],"categories":[],"categories_nodes":[],"categories_segments":[],"categories_sizes":[],"default_left":[0,0,0,0,0],"id":19,"left_children":[1,3,-1,-1,-1],"loss_changes":[1.6625824E0,2.480171E1,0E0,0E0,0E0],"parents":[2147483647,0,0,1,1],"right_children":[2,4,-1,-1,-1],"split_conditions":[4.6E1,8.96E2,-1.532283E-1,-1.4778793E-1,9.266272E-1],"split_indices":[1,6,0,0,0],"split_type":[0,0,0,0,0],"sum_hessian":[8.7487213E2,2.7377779E1,8.474944E2,2.6291359E1,1.0864198E0],"tree_param":{"num_deleted":"0","num_feature":"10","num_nodes":"5","size_leaf_vector":"1"}},{"base_weights":[-4.6054414E-1,-2.142262E-1,-5.0135684E-1,3.1232938E-1,-4.93136E-1,-1.5317932E-1,-4.2189896E-1,-4.519097E-1,3.2016323E0,6.390532E-2,-1.5153435E-1,1.8240441E0,-1.5153235E-1,-1.4956784E-1,2.4891612E-1,-8.2822084E-2,9.496012E-1,2.0769231E-1,-8.4205836E-2],"categories":[],"categories_nodes":[],"categories_segments":[],"categories_sizes":[],"default_left":[0,0,0,0,0,0,0,0,0,0,0,0,0,0,0,0,0,0,0],"id":20,"left_children":[1,3,5,7,9,-1,11,13,-1,-1,-1,15,-1,-1,17,-1,-1,-1,-1],"loss_changes":[8.697632E0,1.8694181E1,3.3573914E-1,3.557705E2,8.0895805E-1,0E0,1.6611801E1,1.5050831E0,0E0,0E0,0E0,9.933765E0,0E0,0E0,9.6998477E-1,0E0,0E0,0E0,0E0],"parents":[2147483647,0,0,1,1,2,2,3,3,4,4,6,6,7,7,11,11,14,14],"right_children":[2,4,6,8,10,-1,12,14,-1,-1,-1,16,-1,-1,18,-1,-1,-1,-1],"split_conditions":[5.2E1,4.64E2,4E0,4.62E2,1.08E2,-1.5317932E-1,1.97E2,4E0,3.2016323E0,6.390532E-2,-1.5153435E-1,9.2E1,-1.5153235E-1,-1.4956784E-1,6.83E2,-8.2822084E-2,9.496012E-1,2.0769231E-1,-8.4205836E-2],"split_indices":[1,6,8,6,5,0,3,8,0,0,0,1,0,0,2,0,0,0,0],"split_type":[0,0,0,0,0,0,0,0,0,0,0,0,0,0,0,0,0,0,0],"sum_hessian":[8.7487213E2,1.2524248E2,7.496297E2,4.3326424E1,8.191605E1,6.6667065E2,8.2959015E1,4.1240498E1,2.085926E0,1.0864198E0,8.0829636E1,2.2162964E0,8.074272E1,3.8937286E1,2.30321E0,1.1733334E0,1.042963E0,1.0864198E0,1.2167902E0],"tree_param":{"num_deleted":"0","num_feature":"10","num_nodes":"19","size_leaf_vector":"1"}},{"base_weights":[1.0689027E-1,-1.5597397E-1,7.207272E0,-4.7226351E-1,6.20086E-1,1.7357777E1,-1.4523765E-1,-5.031363E-1,-1.4986688E-1,4.1029153E0,-4.819245E-1,-8.553638E-2,5.7585926E0,-2.6799464E-1,-1.5256146E-1,1.2560705E0,-4.7740057E-1,-8.359773E-2,1.2851165E1,-1.524197E-1,-3.4514856E-1,-1.4187308E-1,3.4117782E-1,-3.2132876E-1,4.4627576E0,-1.4958863E-1,-2.2863741E-1,-4.7343767E-1,2.22071E0,4.2026605E-2,1.7818045E1,4.601429E-1,-1.4853327E-1,-1.3048771E-1,4.719248E-2,1.9670122E0,-7.831763E-2,-1.1775508E-1,6.8527915E-2,6.390532E-2,-1.4945157E-1,1.4955261E-1,-1.1374952E-1,5.9414163E0,-8.804966E-2],"categories":[],"categories_nodes":[],"categories_segments":[],"categories_sizes":[],"default_left":[0,0,0,0,0,0,0,0,0,0,0,0,0,0,0,0,0,0,0,0,0,0,0,0,0,0,0,0,0,0,0,0,0,0,0,0,0,0,0,0,0,0,0,0,0],"id":21,"left_children":[1,3,5,7,9,11,-1,13,15,17,19,-1,-1,21,-1,23,25,27,29,-1,31,-1,-1,33,35,-1,37,39,-1,41,43,-1,-1,-1,-1,-1,-1,-1,-1,-1,-1,-1,-1,-1,-1],"loss_changes":[1.6358839E3,2.078493E2,2.4512144E3,5.909607E0,9.433542E2,4.4363916E2,0E0,5.602112E-1,2.5454157E1,2.1640637E3,4.9401093E-1,0E0,0E0,4.6925287E0,0E0,5.4411755E1,1.209898E-1,1.2297154E2,1.2157874E3,0E0,1.0102442E1,0E0,0E0,5.009724E-1,3.6534416E1,0E0,4.9007067E-1,7.827358E-1,0E0,1.4089835E0,5.015083E2,0E0,0E0,0E0,0E0,0E0,0E0,0E0,0E0,0E0,0E0,0E0,0E0,0E0,0E0],"parents":[2147483647,0,0,1,1,2,2,3,3,4,4,5,5,7,7,8,8,9,9,10,10,13,13,15,15,16,16,17,17,18,18,20,20,23,23,24,24,26,26,27,27,29,29,30,30],"right_children":[2,4,6,8,10,12,-1,14,16,18,20,-1,-1,22,-1,24,26,28,30,-1,32,-1,-1,34,36,-1,38,40,-1,42,44,-1,-1,-1,-1,-1,-1,-1,-1,-1,-1,-1,-1,-1,-1],"split_conditions":[2.98E2,1.7E2,2E0,4E0,1.83E2,2.4E2,-1.4523765E-1,3.4E1,5.08E2,5.47E2,9.02E2,-8.553638E-2,5.7585926E0,2.3E1,-1.5256146E-1,4.01E2,1.072E3,3E0,7.23E2,-1.524197E-1,9.21E2,-1.4187308E-1,3.4117782E-1,1.011E3,5.76E2,-1.4958863E-1,1.15E2,1.79E2,2.22071E0,2E0,9.84E2,4.601429E-1,-1.4853327E-1,-1.3048771E-1,4.719248E-2,1.9670122E0,-7.831763E-2,-1.1775508E-1,6.8527915E-2,6.390532E-2,-1.4945157E-1,1.4955261E-1,-1.1374952E-1,5.9414163E0,-8.804966E-2],"split_indices":[1,1,9,8,1,0,0,0,3,6,5,0,0,0,0,3,6,8,5,0,5,0,0,5,5,0,1,1,0,9,5,0,0,0,0,0,0,0,0,0,0,0,0,0,0],"split_type":[0,0,0,0,0,0,0,0,0,0,0,0,0,0,0,0,0,0,0,0,0,0,0,0,0,0,0,0,0,0,0,0,0,0,0,0,0,0,0,0,0,0,0,0,0],"sum_hessian":[8.7487213E2,8.4458276E2,3.0289385E1,6.0031213E2,2.4427063E2,1.2515556E1,1.7773829E1,5.473383E2,5.297383E1,5.8058273E1,1.8621236E2,1.260247E0,1.1255309E1,1.3428149E1,5.3391016E2,9.473581E0,4.3500248E1,3.9936794E1,1.8121483E1,1.5405434E2,3.2158028E1,1.2298272E1,1.1298766E0,6.953087E0,2.520494E0,3.915457E1,4.3456793E0,3.8850372E1,1.0864198E0,5.3451853E0,1.2776297E1,1.6948149E0,3.0463211E1,5.6928396E0,1.260247E0,1.477531E0,1.042963E0,3.3027163E0,1.042963E0,1.0864198E0,3.7763954E1,2.4770372E0,2.8681483E0,1.1429136E1,1.3471606E0],"tree_param":{"num_deleted":"0","num_feature":"10","num_nodes":"45","size_leaf_vector":"1"}},{"base_weights":[-5.107798E-1],"categories":[],"categories_nodes":[],"categories_segments":[],"categories_sizes":[],"default_left":[0],"id":22,"left_children":[-1],"loss_changes":[0E0],"parents":[2147483647],"right_children":[-1],"split_conditions":[-1.5323395E-1],"split_indices":[0],"split_type":[0],"sum_hessian":[8.7487213E2],"tree_param":{"num_deleted":"0","num_feature":"10","num_nodes":"1","size_leaf_vector":"1"}},{"base_weights":[-3.2582128E-1,8.423578E0,-4.4144055E-1,5.0808887E0,9.5447963E-1,8.903652E0,-4.9799603E-1,-2.5566044E-1,1.1090233E0,-8.681673E-2,3.602135E0,-5.0471526E-1,-3.1498995E-1,-1.2160917E-1,6.390532E-2,-1.3744655E-1,-1.5177046E-1,-3.9756083E-1,5.5165195E-1,5.521472E-2,-9.993114E-2,-9.7022325E-2,-1.468476E-1,-8.553638E-2,3.62219E-1,3.126502E-1,-1.3214457E-1],"categories":[],"categories_nodes":[],"categories_segments":[],"categories_sizes":[],"default_left":[0,0,0,0,0,0,0,0,0,0,0,0,0,0,0,0,0,0,0,0,0,0,0,0,0,0,0],"id":23,"left_children":[1,3,5,-1,7,9,11,13,-1,-1,-1,15,17,-1,-1,19,-1,21,23,-1,-1,25,-1,-1,-1,-1,-1],"loss_changes":[8.897499E2,7.133201E2,4.6181155E2,0E0,2.4741802E1,1.5350879E2,8.9993286E-1,5.010549E-1,0E0,0E0,0E0,2.9162598E-1,2.5920837E0,0E0,0E0,3.1555963E-1,0E0,8.049917E-1,2.1567576E0,0E0,0E0,3.7748628E0,0E0,0E0,0E0,0E0,0E0],"parents":[2147483647,0,0,1,1,2,2,4,4,5,5,6,6,7,7,11,11,12,12,15,15,17,17,18,18,21,21],"right_children":[2,4,6,-1,8,10,12,14,-1,-1,-1,16,18,-1,-1,20,-1,22,24,-1,-1,26,-1,-1,-1,-1,-1],"split_conditions":[1.5E1,1.45E2,1.2E1,5.0808887E0,5.77E2,1.4E1,5E0,1.2E1,1.1090233E0,-8.681673E-2,3.602135E0,1.7E1,1.139E3,-1.2160917E-1,6.390532E-2,5E0,-1.5177046E-1,4.58E2,5.9E1,5.521472E-2,-9.993114E-2,4.62E2,-1.468476E-1,-8.553638E-2,3.62219E-1,3.126502E-1,-1.3214457E-1],"split_indices":[0,5,3,0,6,2,8,0,0,0,0,4,5,0,0,7,0,4,1,0,0,6,0,0,0,0,0],"split_type":[0,0,0,0,0,0,0,0,0,0,0,0,0,0,0,0,0,0,0,0,0,0,0,0,0,0,0],"sum_hessian":[8.7487213E2,1.0473087E1,8.6439905E2,4.3022223E0,6.1708646E0,4.2587657E0,8.601403E2,4.910618E0,1.260247E0,1.3037038E0,2.955062E0,8.279823E2,3.2158028E1,3.8241978E0,1.0864198E0,3.0419755E0,8.249403E2,2.9854816E1,2.30321E0,1.1733334E0,1.8686421E0,7.4745684E0,2.2380249E1,1.260247E0,1.042963E0,1.260247E0,6.214321E0],"tree_param":{"num_deleted":"0","num_feature":"10","num_nodes":"27","size_leaf_vector":"1"}},{"base_weights":[-5.062129E-1,1.6762328E-1,-1.532333E-1],"categories":[],"categories_nodes":[],"categories_segments":[],"categories_sizes":[],"default_left":[0,0,0],"id":24,"left_children":[1,-1,-1],"loss_changes":[4.543213E0,0E0,0E0],"parents":[2147483647,0,0],"right_children":[2,-1,-1],"split_conditions":[6E0,1.6762328E-1,-1.532333E-1],"split_indices":[0,0,0],"split_type":[0,0,0],"sum_hessian":[8.7487213E2,3.2158027E0,8.716564E2],"tree_param":{"num_deleted":"0","num_feature":"10","num_nodes":"3","size_leaf_vector":"1"}},{"base_weights":[-4.947957E-1,2.966623E0,-1.532333E-1,5.947136E-2,1.178867E0],"categories":[],"categories_nodes":[],"categories_segments":[],"categories_sizes":[],"default_left":[0,0,0,0,0],"id":25,"left_children":[1,3,-1,-1,-1],"loss_changes":[4.9968704E1,1.0343533E1,0E0,0E0,0E0],"parents":[2147483647,0,0,1,1],"right_children":[2,4,-1,-1,-1],"split_conditions":[7E0,6.55E2,-1.532333E-1,5.947136E-2,1.178867E0],"split_indices":[3,6,0,0,0],"split_type":[0,0,0,0,0],"sum_hessian":[8.7487213E2,3.1723459E0,8.716998E2,1.1298766E0,2.0424693E0],"tree_param":{"num_deleted":"0","num_feature":"10","num_nodes":"5","size_leaf_vector":"1"}},{"base_weights":[-5.073546E-1],"categories":[],"categories_nodes":[],"categories_segments":[],"categories_sizes":[],"default_left":[0],"id":26,"left_children":[-1],"loss_changes":[0E0],"parents":[2147483647],"right_children":[-1],"split_conditions":[-1.5220639E-1],"split_indices":[0],"split_type":[0],"sum_hessian":[8.7487213E2],"tree_param":{"num_deleted":"0","num_feature":"10","num_nodes":"1","size_leaf_vector":"1"}},{"base_weights":[5.555859E-1,-1.5322544E-1,6.587696E0],"categories":[],"categories_nodes":[],"categories_segments":[],"categories_sizes":[],"default_left":[0,0,0],"id":27,"left_children":[1,-1,-1],"loss_changes":[2.0001459E4,0E0,0E0],"parents":[2147483647,0,0],"right_children":[2,-1,-1],"split_conditions":[2.839E3,-1.5322544E-1,6.587696E0],"split_indices":[2,0,0],"split_type":[0,0,0],"sum_hessian":[8.7487213E2,8.342835E2,4.0588646E1],"tree_param":{"num_deleted":"0","num_feature":"10","num_nodes":"3","size_leaf_vector":"1"}},{"base_weights":[-4.8109508E-1,-1.425254E-1,-1.5321851E-1,1.3714796E0,-1.5079999E-1,-1.4152351E-1,3.5061352E0],"categories":[],"categories_nodes":[],"categories_segments":[],"categories_sizes":[],"default_left":[0,0,0,0,0,0,0],"id":28,"left_children":[1,3,-1,5,-1,-1,-1],"loss_changes":[8.714783E0,3.988129E1,0E0,2.7324036E2,0E0,0E0,0E0],"parents":[2147483647,0,0,1,1,3,3],"right_children":[2,4,-1,6,-1,-1,-1],"split_conditions":[8.7E1,3E0,-1.5321851E-1,2.15E2,-1.5079999E-1,-1.4152351E-1,3.5061352E0],"split_indices":[4,7,0,2,0,0,0],"split_type":[0,0,0,0,0,0,0],"sum_hessian":[8.7487213E2,7.087803E1,8.0399414E2,1.3080495E1,5.7797535E1,1.1907162E1,1.1733334E0],"tree_param":{"num_deleted":"0","num_feature":"10","num_nodes":"7","size_leaf_vector":"1"}},{"base_weights":[-5.062129E-1,-2.9687977E-1,-1.5322983E-1,-1.4568466E-1,4.6932516E-1],"categories":[],"categories_nodes":[],"categories_segments":[],"categories_sizes":[],"default_left":[0,0,0,0,0],"id":29,"left_children":[1,3,-1,-1,-1],"loss_changes":[6.83197E-1,8.148661E0,0E0,0E0,0E0],"parents":[2147483647,0,0,1,1],"right_children":[2,4,-1,-1,-1],"split_conditions":[3.6E1,8.94E2,-1.5322983E-1,-1.4568466E-1,4.6932516E-1],"split_indices":[1,2,0,0,0],"split_type":[0,0,0,0,0],"sum_hessian":[8.7487213E2,2.003358E1,8.5483856E2,1.8860249E1,1.1733334E0],"tree_param":{"num_deleted":"0","num_feature":"10","num_nodes":"5","size_leaf_vector":"1"}},{"base_weights":[-4.9593744E-1,5.956258E-1,-5.02772E-1,-1.5321365E-1,-4.2818472E-1,-1.0752688E-1,-1.5129903E-1,-1.4394516E-1,1.7042971E0,8.4356564E-1,-8.138187E-2],"categories":[],"categories_nodes":[],"categories_segments":[],"categories_sizes":[],"default_left":[0,0,0,0,0,0,0,0,0,0,0],"id":30,"left_children":[1,-1,3,-1,5,7,-1,-1,9,-1,-1],"loss_changes":[1.5852066E1,0E0,2.9908752E-1,0E0,2.1506805E0,1.3363908E1,0E0,0E0,8.18078E0,0E0,0E0],"parents":[2147483647,0,0,2,2,4,4,5,5,8,8],"right_children":[2,-1,4,-1,6,8,-1,-1,10,-1,-1],"split_conditions":[7E0,5.956258E-1,4E0,-1.5321365E-1,1.11E2,9E1,-1.5129903E-1,-1.4394516E-1,2E0,8.4356564E-1,-8.138187E-2],"split_indices":[4,0,8,0,0,0,0,0,9,0,0],"split_type":[0,0,0,0,0,0,0,0,0,0,0],"sum_hessian":[8.7487213E2,1.6079013E0,8.732643E2,7.839606E2,8.930371E1,1.76E1,7.1703705E1,1.5209877E1,2.3901236E0,1.260247E0,1.1298766E0],"tree_param":{"num_deleted":"0","num_feature":"10","num_nodes":"11","size_leaf_vector":"1"}},{"base_weights":[-5.096381E-1],"categories":[],"categories_nodes":[],"categories_segments":[],"categories_sizes":[],"default_left":[0],"id":31,"left_children":[-1],"loss_changes":[0E0],"parents":[2147483647],"right_children":[-1],"split_conditions":[-1.5289143E-1],"split_indices":[0],"split_type":[0],"sum_hessian":[8.7487213E2],"tree_param":{"num_deleted":"0","num_feature":"10","num_nodes":"1","size_leaf_vector":"1"}},{"base_weights":[-2.4247578E-1,1.0940613E0,-3.329342E-1,-2.1084158E-1,4.6138773E0,1.1278722E0,-3.5733855E-1,-1.4907767E-1,1.2228762E0,1.3314101E1,-1.3882238E-1,-7.2543554E-2,2.2638037E0,2.456452E-1,-4.2171657E-1,1.1751442E0,-1.2494273E-1,-8.2822084E-2,5.092013E0,4.7019932E-1,-1.3934538E-1,-3.2206425E-1,4.4661655E0,6.171861E-1,-4.5023695E-1,6.1959934E-1,-4.237924E-1,-4.087755E-1,2.9499402E0,-4.663699E-1,4.9174482E-1,5.5996394E-1,-1.5129651E-1,-1.4132E-1,-4.3824078E-3,1.9984357E0,-1.1702003E-1,-8.441156E-2,-1.4601755E-1,-1.396737E-1,1.4758842E0],"categories":[],"categories_nodes":[],"categories_segments":[],"categories_sizes":[],"default_left":[0,0,0,0,0,0,0,0,0,0,0,0,0,0,0,0,0,0,0,0,0,0,0,0,0,0,0,0,0,0,0,0,0,0,0,0,0,0,0,0,0],"id":32,"left_children":[1,3,5,7,9,11,13,-1,15,17,-1,19,-1,21,23,-1,-1,-1,-1,-1,-1,25,-1,27,29,-1,31,33,35,37,39,-1,-1,-1,-1,-1,-1,-1,-1,-1,-1],"loss_changes":[1.0625807E2,2.5705908E2,2.9675873E1,1.7683657E1,6.741296E2,1.063512E2,3.1484169E1,0E0,3.3496033E1,2.8349432E2,0E0,8.800424E0,0E0,6.582453E2,2.1930511E1,0E0,0E0,0E0,0E0,0E0,0E0,1.949291E1,0E0,4.894573E1,1.104686E1,0E0,1.4655335E1,3.548441E-1,7.964022E1,2.500351E0,5.51606E1,0E0,0E0,0E0,0E0,0E0,0E0,0E0,0E0,0E0,0E0],"parents":[2147483647,0,0,1,1,2,2,3,3,4,4,5,5,6,6,8,8,9,9,11,11,13,13,14,14,21,21,23,23,24,24,26,26,27,27,28,28,29,29,30,30],"right_children":[2,4,6,8,10,12,14,-1,16,18,-1,20,-1,22,24,-1,-1,-1,-1,-1,-1,26,-1,28,30,-1,32,34,36,38,40,-1,-1,-1,-1,-1,-1,-1,-1,-1,-1],"split_conditions":[7.6E1,7.8E1,2.6E1,9.5E2,2E0,5E0,4.7E1,-1.4907767E-1,3E0,1.53E2,-1.3882238E-1,2.15E2,2.2638037E0,2.53E2,2.63E2,1.1751442E0,-1.2494273E-1,-8.2822084E-2,5.092013E0,4.7019932E-1,-1.3934538E-1,1.21E2,4.4661655E0,2.08E2,9E0,6.1959934E-1,1.2E1,8.42E2,2.4E2,1.39E2,1.105E3,5.5996394E-1,-1.5129651E-1,-1.4132E-1,-4.3824078E-3,1.9984357E0,-1.1702003E-1,-8.441156E-2,-1.4601755E-1,-1.396737E-1,1.4758842E0],"split_indices":[4,3,1,6,9,8,0,0,7,5,0,3,0,1,3,0,0,0,0,0,0,5,0,3,7,0,0,6,1,5,6,0,0,0,0,0,0,0,0,0,0],"split_type":[0,0,0,0,0,0,0,0,0,0,0,0,0,0,0,0,0,0,0,0,0,0,0,0,0,0,0,0,0,0,0,0,0,0,0,0,0,0,0,0,0],"sum_hessian":[8.7487213E2,5.4755558E1,8.201166E2,4.0632103E1,1.4123458E1,1.2732841E1,8.073837E2,3.4417778E1,6.214321E0,4.60642E0,9.517037E0,1.1559507E1,1.1733334E0,7.761383E1,7.297699E2,1.8251853E0,4.3891363E0,1.1733334E0,3.4330866E0,1.6513581E0,9.908149E0,7.565828E1,1.9555557E0,1.8947163E1,7.1082275E2,2.30321E0,7.3355064E1,1.3732347E1,5.214815E0,6.9935016E2,1.1472593E1,1.7382717E0,7.161679E1,1.16898775E1,2.0424693E0,1.9990125E0,3.2158027E0,7.0791115E1,6.285591E2,1.016889E1,1.3037038E0],"tree_param":{"num_deleted":"0","num_feature":"10","num_nodes":"41","size_leaf_vector":"1"}},{"base_weights":[-5.0849634E-1,2.003246E-1,-1.532337E-1],"categories":[],"categories_nodes":[],"categories_segments":[],"categories_sizes":[],"default_left":[0,0,0],"id":33,"left_children":[1,-1,-1],"loss_changes":[2.6927948E0,0E0,0E0],"parents":[2147483647,0,0],"right_children":[2,-1,-1],"split_conditions":[4E0,2.003246E-1,-1.532337E-1],"split_indices":[4,0,0],"split_type":[0,0,0],"sum_hessian":[8.7487213E2,1.1298766E0,8.7374225E2],"tree_param":{"num_deleted":"0","num_feature":"10","num_nodes":"3","size_leaf_vector":"1"}},{"base_weights":[-1.5684685E-1,-3.4517428E-1,2.6357434E0,-1.5281045E-1,1.5730464E0,5.746851E0,-4.796317E-1,-2.2351335E-1,9.427768E0,-1.5010992E-1,5.947136E-2,-1.5012832E-1,1.3972777E0,5.6638856E0,-1.3120846E-1,1.9457563E0,-1.3120846E-1],"categories":[],"categories_nodes":[],"categories_segments":[],"categories_sizes":[],"default_left":[0,0,0,0,0,0,0,0,0,0,0,0,0,0,0,0,0],"id":34,"left_children":[1,3,5,-1,7,-1,9,11,13,-1,-1,-1,15,-1,-1,-1,-1],"loss_changes":[4.615497E2,2.5951605E2,2.8631213E3,0E0,9.195205E2,0E0,7.686386E-1,2.4884777E1,1.1388317E3,0E0,0E0,0E0,7.87071E1,0E0,0E0,0E0,0E0],"parents":[2147483647,0,0,1,1,2,2,4,4,6,6,7,7,8,8,12,12],"right_children":[2,4,6,-1,8,-1,10,12,14,-1,-1,-1,16,-1,-1,-1,-1],"split_conditions":[8.29E2,6E0,8.56E2,-1.5281045E-1,1.031E3,5.746851E0,1E1,8.57E2,1.042E3,-1.5010992E-1,5.947136E-2,-1.5012832E-1,8.76E2,5.6638856E0,-1.3120846E-1,1.9457563E0,-1.3120846E-1],"split_indices":[3,7,3,0,5,0,8,6,5,0,0,0,6,0,0,0,0],"split_type":[0,0,0,0,0,0,0,0,0,0,0,0,0,0,0,0,0],"sum_hessian":[8.7487213E2,8.204208E2,5.4451363E1,7.5640894E2,6.4011856E1,7.8222227E0,4.662914E1,5.2886917E1,1.1124939E1,4.5499264E1,1.1298766E0,4.5760002E1,7.126914E0,5.214815E0,5.910124E0,1.2167902E0,5.910124E0],"tree_param":{"num_deleted":"0","num_feature":"10","num_nodes":"17","size_leaf_vector":"1"}},{"base_weights":[-4.9822086E-1,-3.8629717E-1,-1.5321362E-1,-1.5172325E-1,1.5369834E0],"categories":[],"categories_nodes":[],"categories_segments":[],"categories_sizes":[],"default_left":[0,0,0,0,0],"id":35,"left_children":[1,3,-1,-1,-1],"loss_changes":[1.0272217E0,6.31641E1,0E0,0E0,0E0],"parents":[2147483647,0,0,1,1],"right_children":[2,4,-1,-1,-1],"split_conditions":[1.97E2,4.08E2,-1.5321362E-1,-1.5172325E-1,1.5369834E0],"split_indices":[3,2,0,0,0],"split_type":[0,0,0,0,0],"sum_hessian":[8.7487213E2,9.1041985E1,7.838302E2,8.9999016E1,1.042963E0],"tree_param":{"num_deleted":"0","num_feature":"10","num_nodes":"5","size_leaf_vector":"1"}},{"base_weights":[-5.0507116E-1,-1.5254505E-1,2.036199E-1,-1.1374952E-1,3.62219E-1],"categories":[],"categories_nodes":[],"categories_segments":[],"categories_sizes":[],"default_left":[0,0,0,0,0],"id":36,"left_children":[1,-1,3,-1,-1],"loss_changes":[2.2216034E0,0E0,3.3307338E0,0E0,0E0],"parents":[2147483647,0,0,2,2],"right_children":[2,-1,4,-1,-1],"split_conditions":[9E0,-1.5254505E-1,6.78E2,-1.1374952E-1,3.62219E-1],"split_indices":[8,0,6,0,0],"split_type":[0,0,0,0,0],"sum_hessian":[8.7487213E2,8.7096106E2,3.9111114E0,2.8681483E0,1.042963E0],"tree_param":{"num_deleted":"0","num_feature":"10","num_nodes":"5","size_leaf_vector":"1"}},{"base_weights":[6.4537067E0,5.213358E-2,2.0099113E1,-3.2513255E-1,8.791967E-1,3.914672E0,2.0738625E1,1.7122196E0,-3.8270354E-1,1.1754276E1,6.411612E-1,-1.3743638E-1,4.6792912E0,1.4013371E1,2.17713E1,3.7555096E0,9.5687404E-2,-4.5819813E-1,4.3442655E-1,4.3290653E0,6.559101E-1,6.038078E0,3.8872552E-1,6.2270284E0,7.342457E0,6.6155443E0,1.118261E1,-1.0072918E-1,1.9087896E0,-1.22171946E-1,7.700939E-1,-4.9008235E-1,3.2070017E-1,-4.3019933E-1,6.3712816E0,4.706533E0,-1.2726201E-1,7.2672276E0,2.0042117E-1,-1.3988419E-1,1.5002793E1,5.411108E0,-1.1462105E-1,-8.138187E-2,4.1272464E-1,-1.7996576E-2,-1.494995E-1,-1.3432837E-1,3.1596985E-1,1.3075061E-1,-1.4817156E-1,2.2892973E-3,3.358472E0,3.953477E0,8.404669E-2,1.5901114E0,2.0297743E-2,5.8551674E0,-1.0815732E-1],"categories":[],"categories_nodes":[],"categories_segments":[],"categories_sizes":[],"default_left":[0,0,0,0,0,0,0,0,0,0,0,0,0,0,0,0,0,0,0,0,0,0,0,0,0,0,0,0,0,0,0,0,0,0,0,0,0,0,0,0,0,0,0,0,0,0,0,0,0,0,0,0,0,0,0,0,0,0,0],"id":37,"left_children":[1,3,5,7,9,11,13,15,17,19,21,-1,-1,23,25,27,29,31,33,-1,-1,35,37,-1,39,-1,41,-1,-1,-1,43,45,47,49,51,-1,-1,53,55,-1,57,-1,-1,-1,-1,-1,-1,-1,-1,-1,-1,-1,-1,-1,-1,-1,-1,-1,-1],"loss_changes":[7.6508195E4,1.8662085E2,2.813625E3,4.8843807E1,4.7742926E2,6.132541E2,1.5618906E3,3.7536755E1,2.4897312E1,6.971234E1,2.4885788E2,0E0,0E0,1.5835552E3,4.4023438E2,5.5911057E1,2.8342454E0,9.271271E0,1.791923E2,0E0,0E0,5.1618726E2,2.2808452E2,0E0,1.2599741E3,0E0,6.407704E2,0E0,0E0,0E0,2.5936096E0,1.2223892E0,8.936012E0,1.9223628E0,1.3599199E2,0E0,0E0,1.9016681E2,1.1713059E2,0E0,7.424907E2,0E0,0E0,0E0,0E0,0E0,0E0,0E0,0E0,0E0,0E0,0E0,0E0,0E0,0E0,0E0,0E0,0E0,0E0],"parents":[2147483647,0,0,1,1,2,2,3,3,4,4,5,5,6,6,7,7,8,8,9,9,10,10,13,13,14,14,15,15,16,16,17,17,18,18,21,21,22,22,24,24,26,26,30,30,31,31,32,32,33,33,34,34,37,37,38,38,40,40],"right_children":[2,4,6,8,10,12,14,16,18,20,22,-1,-1,24,26,28,30,32,34,-1,-1,36,38,-1,40,-1,42,-1,-1,-1,44,46,48,50,52,-1,-1,54,56,-1,58,-1,-1,-1,-1,-1,-1,-1,-1,-1,-1,-1,-1,-1,-1,-1,-1,-1,-1],"split_conditions":[2.71E2,4.07E2,7.3E1,1.5E1,4.11E2,3E0,2.35E2,2E0,2.97E2,6.68E2,4.3E1,-1.3743638E-1,4.6792912E0,9.4E1,1.107E3,8.2E1,4E0,1.126E3,1.58E2,4.3290653E0,6.559101E-1,1.11E2,5.2E1,6.2270284E0,1.14E2,6.6155443E0,3E0,-1.0072918E-1,1.9087896E0,-1.22171946E-1,1.2E1,3.6E1,5.2E1,2.4E2,4.12E2,4.706533E0,-1.2726201E-1,4.96E2,4.7E1,-1.3988419E-1,5E0,5.411108E0,-1.1462105E-1,-8.138187E-2,4.1272464E-1,-1.7996576E-2,-1.494995E-1,-1.3432837E-1,3.1596985E-1,1.3075061E-1,-1.4817156E-1,2.2892973E-3,3.358472E0,3.953477E0,8.404669E-2,1.5901114E0,2.0297743E-2,5.8551674E0,-1.0815732E-1],"split_indices":[0,4,1,0,4,8,5,8,1,5,6,0,0,5,6,1,7,5,4,0,0,0,5,0,5,0,9,0,0,0,0,1,1,0,5,0,0,4,0,0,7,0,0,0,0,0,0,0,0,0,0,0,0,0,0,0,0,0,0],"split_type":[0,0,0,0,0,0,0,0,0,0,0,0,0,0,0,0,0,0,0,0,0,0,0,0,0,0,0,0,0,0,0,0,0,0,0,0,0,0,0,0,0,0,0,0,0,0,0,0,0,0,0,0,0,0,0,0,0,0,0],"sum_hessian":[8.7487213E2,5.961837E2,2.7868842E2,4.09841E2,1.8634273E2,1.0864199E1,2.6782422E2,1.0473087E1,3.9936792E2,2.955062E0,1.8338766E2,8.6044445E0,2.2597532E0,3.7590126E1,2.3023409E2,4.041482E0,6.4316053E0,3.659931E2,3.3374817E1,1.9120989E0,1.042963E0,7.170371E0,1.762173E2,1.7643457E1,1.9946669E1,2.2323755E2,6.996544E0,1.9120989E0,2.1293828E0,3.9111114E0,2.520494E0,3.5195657E2,1.4036544E1,2.994173E1,3.4330866E0,2.30321E0,4.867161E0,3.6938274E0,1.7252347E2,1.0342716E1,9.603951E0,4.041482E0,2.955062E0,1.1298766E0,1.3906174E0,6.7792597E0,3.451773E2,7.0400004E0,6.996544E0,1.6513581E0,2.8290373E1,1.9120989E0,1.5209877E0,1.5209877E0,2.1728396E0,3.3896298E0,1.6913383E2,7.2138276E0,2.3901236E0],"tree_param":{"num_deleted":"0","num_feature":"10","num_nodes":"59","size_leaf_vector":"1"}},{"base_weights":[-5.062129E-1,-4.111595E-1,-1.5322466E-1,-1.4991394E-1,4.8203108E-1],"categories":[],"categories_nodes":[],"categories_segments":[],"categories_sizes":[],"default_left":[0,0,0,0,0],"id":38,"left_children":[1,3,-1,-1,-1],"loss_changes":[1.6764832E-1,8.84808E0,0E0,0E0,0E0],"parents":[2147483647,0,0,1,1],"right_children":[2,4,-1,-1,-1],"split_conditions":[2.1E2,8.5E1,-1.5322466E-1,-1.4991394E-1,4.8203108E-1],"split_indices":[2,3,0,0,0],"split_type":[0,0,0,0,0],"sum_hessian":[8.7487213E2,4.4021732E1,8.308504E2,4.2891853E1,1.1298766E0],"tree_param":{"num_deleted":"0","num_feature":"10","num_nodes":"5","size_leaf_vector":"1"}},{"base_weights":[-5.062129E-1,4.3408357E-2,-1.522046E-1],"categories":[],"categories_nodes":[],"categories_segments":[],"categories_sizes":[],"default_left":[0,0,0],"id":39,"left_children":[1,-1,-1],"loss_changes":[7.20932E-1,0E0,0E0],"parents":[2147483647,0,0],"right_children":[2,-1,-1],"split_conditions":[1.4E1,4.3408357E-2,-1.522046E-1],"split_indices":[2,0,0],"split_type":[0,0,0],"sum_hessian":[8.7487213E2,1.3037038E0,8.735684E2],"tree_param":{"num_deleted":"0","num_feature":"10","num_nodes":"3","size_leaf_vector":"1"}},{"base_weights":[-5.096381E-1],"categories":[],"categories_nodes":[],"categories_segments":[],"categories_sizes":[],"default_left":[0],"id":40,"left_children":[-1],"loss_changes":[0E0],"parents":[2147483647],"right_children":[-1],"split_conditions":[-1.5289143E-1],"split_indices":[0],"split_type":[0],"sum_hessian":[8.7487213E2],"tree_param":{"num_deleted":"0","num_feature":"10","num_nodes":"1","size_leaf_vector":"1"}},{"base_weights":[-5.062129E-1,-3.8762724E-1,-5.095824E-1,-1.4778793E-1,3.514793E-1,-1.5322717E-1,-2.681764E-1,-1.23746775E-1,6.8527915E-2],"categories":[],"categories_nodes":[],"categories_segments":[],"categories_sizes":[],"default_left":[0,0,0,0,0,0,0,0,0],"id":41,"left_children":[1,3,5,-1,-1,-1,7,-1,-1],"loss_changes":[1.524353E-1,5.223094E0,1.0368347E-1,0E0,0E0,0E0,5.396154E-1,0E0,0E0],"parents":[2147483647,0,0,1,1,2,2,6,6],"right_children":[2,4,6,-1,-1,-1,8,-1,-1],"split_conditions":[4.6E1,8.96E2,8E0,-1.4778793E-1,3.514793E-1,-1.5322717E-1,7.32E2,-1.23746775E-1,6.8527915E-2],"split_indices":[1,6,8,0,0,0,6,0,0],"split_type":[0,0,0,0,0,0,0,0,0],"sum_hessian":[8.7487213E2,2.7377779E1,8.474944E2,2.6291359E1,1.0864198E0,8.4227954E2,5.214815E0,4.171852E0,1.042963E0],"tree_param":{"num_deleted":"0","num_feature":"10","num_nodes":"9","size_leaf_vector":"1"}},{"base_weights":[-4.9593744E-1,-5.004914E-1,5.0906456E-1,1.1335011E-1,-5.0616026E-1,4.805908E-1,-1.3214457E-1,-3.3806E-2,-1.5253583E-1,-1.15858816E-1,1.9325154E-1],"categories":[],"categories_nodes":[],"categories_segments":[],"categories_sizes":[],"default_left":[0,0,0,0,0,0,0,0,0,0,0],"id":42,"left_children":[1,3,-1,5,7,-1,-1,9,-1,-1,-1],"loss_changes":[9.595688E0,3.101593E0,0E0,7.9790754E0,9.216614E-1,0E0,0E0,1.5051621E0,0E0,0E0,0E0],"parents":[2147483647,0,0,1,1,3,3,4,4,7,7],"right_children":[2,4,-1,6,8,-1,-1,10,-1,-1,-1],"split_conditions":[1.8E1,1.7E1,5.0906456E-1,2E2,1.2E1,4.805908E-1,-1.3214457E-1,5.04E2,-1.5253583E-1,-1.15858816E-1,1.9325154E-1],"split_indices":[7,4,0,0,0,0,0,6,0,0,0],"split_type":[0,0,0,0,0,0,0,0,0,0,0],"sum_hessian":[8.7487213E2,8.7382916E2,1.042963E0,7.8222227E0,8.6600696E2,1.6079013E0,6.214321E0,4.2587657E0,8.617482E2,3.0854323E0,1.1733334E0],"tree_param":{"num_deleted":"0","num_feature":"10","num_nodes":"11","size_leaf_vector":"1"}},{"base_weights":[-4.7081962E-1,-1.8973999E-1,-5.043159E-1,-4.845471E-1,3.705057E0,-1.5318833E-1,-4.4879663E-1,3.298717E-2,-1.5171598E-1,3.340656E-1,-1.5155113E-1,3.9790878E-1,-1.19469024E-1],"categories":[],"categories_nodes":[],"categories_segments":[],"categories_sizes":[],"default_left":[0,0,0,0,0,0,0,0,0,0,0,0,0],"id":43,"left_children":[1,3,5,7,-1,-1,9,-1,-1,11,-1,-1,-1],"loss_changes":[8.150757E0,3.5669308E2,4.486084E-2,1.2344093E0,0E0,0E0,4.0563126E0,0E0,0E0,5.265269E0,0E0,0E0,0E0],"parents":[2147483647,0,0,1,1,2,2,3,3,6,6,9,9],"right_children":[2,4,6,8,-1,-1,10,-1,-1,12,-1,-1,-1],"split_conditions":[2.08E2,4.42E2,4E0,6E0,3.705057E0,-1.5318833E-1,3.01E2,3.298717E-2,-1.5171598E-1,5.2E1,-1.5155113E-1,3.9790878E-1,-1.19469024E-1],"split_indices":[3,2,8,0,0,0,3,0,0,1,0,0,0],"split_type":[0,0,0,0,0,0,0,0,0,0,0,0,0],"sum_hessian":[8.7487213E2,9.386667E1,7.810055E2,9.264988E1,1.2167902E0,6.939181E2,8.708741E1,3.0419755E0,8.960791E1,5.5190125E0,8.15684E1,1.9990125E0,3.5200002E0],"tree_param":{"num_deleted":"0","num_feature":"10","num_nodes":"13","size_leaf_vector":"1"}},{"base_weights":[-7.578479E-2,2.5106885E0,-1.5320471E-1,6.0219936E0,-3.153226E-1,9.266272E-1,-3.7779373E-1,2.2576192E-1,-1.5170372E-1,-1.4516129E-1,1.9331361E0],"categories":[],"categories_nodes":[],"categories_segments":[],"categories_sizes":[],"default_left":[0,0,0,0,0,0,0,0,0,0,0],"id":44,"left_children":[1,3,-1,-1,5,-1,7,9,-1,-1,-1],"loss_changes":[9.865078E2,6.2720176E3,0E0,0E0,2.4501497E1,0E0,8.499829E0,8.998458E1,0E0,0E0,0E0],"parents":[2147483647,0,0,1,1,4,4,6,6,7,7],"right_children":[2,4,-1,-1,6,-1,8,10,-1,-1,-1],"split_conditions":[5.2E1,1.97E2,-1.5320471E-1,6.0219936E0,2.3E1,9.266272E-1,3.49E2,3.26E2,-1.5170372E-1,-1.4516129E-1,1.9331361E0],"split_indices":[1,6,0,0,2,0,6,6,0,0,0],"split_type":[0,0,0,0,0,0,0,0,0,0,0],"sum_hessian":[8.7487213E2,1.2524248E2,7.496297E2,1.651358E1,1.087289E2,1.0864198E0,1.0764248E2,1.868642E1,8.8956055E1,1.76E1,1.0864198E0],"tree_param":{"num_deleted":"0","num_feature":"10","num_nodes":"11","size_leaf_vector":"1"}},{"base_weights":[2.7949765E-1,2.385346E-1,1.218202E0,3.7158543E-1,-4.341721E-1,1.9289023E-1,7.9143214E-1,-1.4819239E-1,3.0029517E-1,-3.1597528E-1,3.661199E-1,2.3160532E0,4.0732807E-1,-4.648155E-1,6.43881E-1,3.18096E-1,7.0727986E-1,1.0221988E0,-2.2530495E-1,3.472618E-2,2.2013657E0,1.6424855E-2,-1.467083E-1,-1.226973E-1,8.4435123E-1,1.386495E-1,-1.1781006E-1,-1.1479683E-1,5.1913273E-2,1.9704352E-1,-1.516883E-1,1.2500335E0,-1.316746E-1],"categories":[],"categories_nodes":[],"categories_segments":[],"categories_sizes":[],"default_left":[0,0,0,0,0,0,0,0,0,0,0,0,0,0,0,0,0,0,0,0,0,0,0,0,0,0,0,0,0,0,0,0,0],"id":45,"left_children":[1,3,-1,5,7,9,11,-1,-1,13,15,17,19,21,23,25,-1,-1,27,29,31,-1,-1,-1,-1,-1,-1,-1,-1,-1,-1,-1,-1],"loss_changes":[4.5732803E1,2.6954172E1,0E0,1.863773E1,4.776396E0,1.5718757E1,4.265651E1,0E0,0E0,6.7982397E0,1.1923563E1,4.1726776E1,4.0487656E1,5.295124E-1,1.6066002E1,1.3550318E1,0E0,0E0,4.0310672E-1,1.7563978E1,5.5899323E1,0E0,0E0,0E0,0E0,0E0,0E0,0E0,0E0,0E0,0E0,0E0,0E0],"parents":[2147483647,0,0,1,1,3,3,4,4,5,5,6,6,9,9,10,10,11,11,12,12,13,13,14,14,15,15,18,18,19,19,20,20],"right_children":[2,4,-1,6,8,10,12,-1,-1,14,16,18,20,22,24,26,-1,-1,28,30,32,-1,-1,-1,-1,-1,-1,-1,-1,-1,-1,-1,-1],"split_conditions":[1.205E3,2.23E2,1.218202E0,7.81E2,9E0,1.91E2,7.97E2,-1.4819239E-1,3.0029517E-1,1.106E3,4E0,7.81E2,5.5E2,3E0,8.8E1,3.73E2,7.0727986E-1,1.0221988E0,6.52E2,8.09E2,5.59E2,1.6424855E-2,-1.467083E-1,-1.226973E-1,8.4435123E-1,1.386495E-1,-1.1781006E-1,-1.1479683E-1,5.1913273E-2,1.9704352E-1,-1.516883E-1,1.2500335E0,-1.316746E-1],"split_indices":[6,0,0,6,7,0,6,0,0,5,9,2,4,7,0,6,0,0,5,6,5,0,0,0,0,0,0,0,0,0,0,0,0],"split_type":[0,0,0,0,0,0,0,0,0,0,0,0,0,0,0,0,0,0,0,0,0,0,0,0,0,0,0,0,0,0,0,0,0],"sum_hessian":[3.0051636E2,2.9834732E2,2.1690361E0,2.4945639E2,4.8890934E1,1.7600468E2,7.3451706E1,4.756473E1,1.3262033E0,4.449011E1,1.3151457E2,1.3768953E1,5.968275E1,3.8963913E1,5.526198E0,1.2955025E2,1.9643342E0,9.394249E0,4.3747044E0,5.0263027E1,9.419722E0,1.6787454E0,3.7285168E1,4.2677045E0,1.2584933E0,1.0800821E2,2.1542036E1,3.1642108E0,1.2104937E0,2.326432E1,2.6998709E1,5.068556E0,4.3511662E0],"tree_param":{"num_deleted":"0","num_feature":"10","num_nodes":"33","size_leaf_vector":"1"}},{"base_weights":[4.7444198E-1,-1.5267113E-1,7.3872375E-1,5.183637E-1,1.5532715E0,2.4006407E0,4.6878827E-1,3.5877898E0,4.192753E-1,-1.6703133E-1,1.9535121E0,1.6082451E0,3.838186E-1,1.4216142E0,1.1412745E1,7.804889E-1,-4.1889578E-1,8.49185E-1,1.15716785E-1,4.376321E-1,-9.1596466E-1,2.8313951E0,-2.7848251E-2,2.1255901E-1,6.411058E0,-1.7222679E-1,9.754539E-1,-1.4508568E-1,1.5573204E-2,1.4147507E-1,-1.1692778E-1,9.653576E-2,3.8488352E-1,-5.4041106E-1,-1.4839728E-1,-9.731509E-2,1.0491867E0,-1.6738929E-1,2.3547322E-1,2.1836622E-1,-9.064999E-2,2.379656E-1,6.632913E-1],"categories":[],"categories_nodes":[],"categories_segments":[],"categories_sizes":[],"default_left":[0,0,0,0,0,0,0,0,0,0,0,0,0,0,0,0,0,0,0,0,0,0,0,0,0,0,0,0,0,0,0,0,0,0,0,0,0,0,0,0,0,0,0],"id":46,"left_children":[1,-1,3,5,7,9,11,13,15,-1,-1,17,19,21,23,25,27,-1,29,31,33,35,37,39,-1,-1,41,-1,-1,-1,-1,-1,-1,-1,-1,-1,-1,-1,-1,-1,-1,-1,-1],"loss_changes":[1.0876813E2,0E0,5.8273926E1,2.3188713E1,1.5903217E2,8.1970856E1,2.4082901E1,4.0364868E2,1.41968155E1,0E0,0E0,3.140001E1,1.7098755E1,4.2056202E1,5.7854486E2,9.10718E0,4.653542E-1,0E0,1.7798253E0,2.210159E1,2.7698631E0,2.303878E1,5.228661E0,1.1405419E0,0E0,0E0,4.6996975E0,0E0,0E0,0E0,0E0,0E0,0E0,0E0,0E0,0E0,0E0,0E0,0E0,0E0,0E0,0E0,0E0],"parents":[2147483647,0,0,2,2,3,3,4,4,5,5,6,6,7,7,8,8,11,11,12,12,13,13,14,14,15,15,16,16,18,18,19,19,20,20,21,21,22,22,23,23,26,26],"right_children":[2,-1,4,6,8,10,12,14,16,-1,-1,18,20,22,24,26,28,-1,30,32,34,36,38,40,-1,-1,42,-1,-1,-1,-1,-1,-1,-1,-1,-1,-1,-1,-1,-1,-1,-1,-1],"split_conditions":[2E0,-1.5267113E-1,6.93E2,4.6E1,8.28E2,3.6E1,5.2E1,7.93E2,3.62E2,-1.6703133E-1,1.9535121E0,5.2E1,9E0,2.17E2,6.32E2,9.3E2,8E0,8.49185E-1,6.2E1,5.47E2,6E0,3E0,8.14E2,7.04E2,6.411058E0,-1.7222679E-1,6.9E1,-1.4508568E-1,1.5573204E-2,1.4147507E-1,-1.1692778E-1,9.653576E-2,3.8488352E-1,-5.4041106E-1,-1.4839728E-1,-9.731509E-2,1.0491867E0,-1.6738929E-1,2.3547322E-1,2.1836622E-1,-9.064999E-2,2.379656E-1,6.632913E-1],"split_indices":[9,0,6,1,6,1,6,6,3,0,0,0,7,1,5,6,7,0,0,6,9,9,5,2,0,0,0,0,0,0,0,0,0,0,0,0,0,0,0,0,0,0,0],"split_type":[0,0,0,0,0,0,0,0,0,0,0,0,0,0,0,0,0,0,0,0,0,0,0,0,0,0,0,0,0,0,0,0,0,0,0,0,0,0,0,0,0,0,0],"sum_hessian":[4.1608493E2,8.7942154E1,3.2814276E2,2.5956018E2,6.858257E1,5.44387E0,2.5411632E2,2.3770947E1,4.481163E1,3.6690226E0,1.7748475E0,1.6390453E1,2.3772588E2,1.9542648E1,4.228297E0,3.1363995E1,1.3447635E1,8.517857E0,7.8725963E0,2.2891179E2,8.814085E0,9.423613E0,1.0119037E1,2.4706473E0,1.7576499E0,3.7015789E0,2.7662415E1,1.1798453E1,1.649181E0,4.659354E0,3.2132418E0,2.0253584E2,2.637594E1,1.7856822E0,7.0284023E0,1.7313454E0,7.692267E0,6.3141637E0,3.804873E0,1.0276585E0,1.4429889E0,2.5537691E1,2.1247244E0],"tree_param":{"num_deleted":"0","num_feature":"10","num_nodes":"43","size_leaf_vector":"1"}},{"base_weights":[-2.6621845E-2,2.3320444E-1,-4.4055212E-1,4.0034696E-1,-1.4624786E-1,1.8725383E-1,-4.6092954E-1,5.2937365E-1,-1.427529E-1,-4.916199E-1,-5.0342068E-2,-1.3158841E-1,5.96306E-1,-1.5007865E-1,2.3663832E-2,-1.2508963E-1,1.9054446E-1,-9.847079E-2,6.166326E-1,2.6609918E-1,1.6054823E-1],"categories":[],"categories_nodes":[],"categories_segments":[],"categories_sizes":[],"default_left":[0,0,0,0,0,0,0,0,0,0,0,0,0,0,0,0,0,0,0,0,0],"id":47,"left_children":[1,3,5,7,-1,-1,9,11,-1,13,15,-1,17,-1,-1,-1,-1,-1,19,-1,-1],"loss_changes":[2.6636827E1,1.8532127E1,2.3594685E0,1.4283564E1,0E0,0E0,1.1631603E0,7.301651E0,0E0,4.7136116E-1,2.1925566E0,0E0,2.120304E0,0E0,0E0,0E0,0E0,0E0,1.7326012E0,0E0,0E0],"parents":[2147483647,0,0,1,1,2,2,3,3,6,6,7,7,9,9,10,10,12,12,18,18],"right_children":[2,4,6,8,-1,-1,10,12,-1,14,16,-1,18,-1,-1,-1,-1,-1,20,-1,-1],"split_conditions":[4.69E2,2.04E2,8E0,5E0,-1.4624786E-1,1.8725383E-1,1.145E3,4.13E2,-1.427529E-1,1.205E3,1.008E3,-1.3158841E-1,1.21E2,-1.5007865E-1,2.3663832E-2,-1.2508963E-1,1.9054446E-1,-9.847079E-2,2.12E2,2.6609918E-1,1.6054823E-1],"split_indices":[5,0,1,7,0,0,5,6,0,6,2,0,5,0,0,0,0,0,5,0,0],"split_type":[0,0,0,0,0,0,0,0,0,0,0,0,0,0,0,0,0,0,0,0,0],"sum_hessian":[2.4571407E2,1.5122556E2,9.4488495E1,1.23117035E2,2.8108528E1,1.2179706E0,9.327052E1,1.076591E2,1.5457926E1,8.660004E1,6.6704874E0,6.6034985E0,1.0105561E2,8.542903E1,1.171007E0,4.6012893E0,2.0691981E0,1.8480911E0,9.920752E1,2.0683176E1,7.852434E1],"tree_param":{"num_deleted":"0","num_feature":"10","num_nodes":"21","size_leaf_vector":"1"}},{"base_weights":[-4.6394292E-1,-1.5078634E-1,1.5191199E0,-8.219404E-2,8.1064177E-1],"categories":[],"categories_nodes":[],"categories_segments":[],"categories_sizes":[],"default_left":[0,0,0,0,0],"id":48,"left_children":[1,-1,3,-1,-1],"loss_changes":[1.2620037E1,0E0,7.5409203E0,0E0,0E0],"parents":[2147483647,0,0,2,2],"right_children":[2,-1,4,-1,-1],"split_conditions":[7E0,-1.5078634E-1,1.106E3,-8.219404E-2,8.1064177E-1],"split_indices":[8,0,5,0,0],"split_type":[0,0,0,0,0],"sum_hessian":[1.5358006E2,1.5137416E2,2.205901E0,1.1822989E0,1.023602E0],"tree_param":{"num_deleted":"0","num_feature":"10","num_nodes":"5","size_leaf_vector":"1"}},{"base_weights":[-4.9617428E-1,-1.5073447E-1,-3.1809798E-1,7.0993364E-2,-1.3038065E-1],"categories":[],"categories_nodes":[],"categories_segments":[],"categories_sizes":[],"default_left":[0,0,0,0,0],"id":49,"left_children":[1,-1,3,-1,-1],"loss_changes":[1.2306213E-2,0E0,6.178823E-1,0E0,0E0],"parents":[2147483647,0,0,2,2],"right_children":[2,-1,4,-1,-1],"split_conditions":[1.139E3,-1.5073447E-1,5.2E1,7.0993364E-2,-1.3038065E-1],"split_indices":[5,0,1,0,0],"split_type":[0,0,0,0,0],"sum_hessian":[1.5307275E2,1.4610374E2,6.9690156E0,1.0305885E0,5.938427E0],"tree_param":{"num_deleted":"0","num_feature":"10","num_nodes":"5","size_leaf_vector":"1"}},{"base_weights":[-4.9619716E-1,-1.5291111E-1,-1.507721E-1,-1.0411564E-1,6.553253E-2],"categories":[],"categories_nodes":[],"categories_segments":[],"categories_sizes":[],"default_left":[0,0,0,0,0],"id":50,"left_children":[1,3,-1,-1,-1],"loss_changes":[2.6074982E-1,3.8220018E-1,0E0,0E0,0E0],"parents":[2147483647,0,0,1,1],"right_children":[2,4,-1,-1,-1],"split_conditions":[2E1,1.2E1,-1.507721E-1,-1.0411564E-1,6.553253E-2],"split_indices":[3,3,0,0,0],"split_type":[0,0,0,0,0],"sum_hessian":[1.5322769E2,3.2498128E0,1.4997787E2,2.1770847E0,1.072728E0],"tree_param":{"num_deleted":"0","num_feature":"10","num_nodes":"5","size_leaf_vector":"1"}},{"base_weights":[6.99455E-1,1.8220311E0,4.9759054E-1,2.5048056E0,2.6495492E-1,2.802018E0,4.1831276E-1,2.7454991E0,-2.4583066E-1,-1.3217165E-1,4.2041695E-1,2.2545366E0,2.1091604E0,3.6115426E-1,1.8092777E0,2.9107544E0,-2.3143862E-1,-1.527642E-1,2.2053109E-1,1.4324148E-1,3.5704626E-4,-1.0721647E-1,2.6075704E0,5.7630944E-1,-2.1514245E-3,7.756536E0,1.4564283E-1,3.031313E0,-3.0830745E-2,4.8104938E-2,-1.12292685E-1,8.53055E-1,-8.5335106E-2,4.331023E-1,3.6291795E0,-2.35633E0,2.2604668E-1,8.8548005E-1,3.09015E0,6.339875E-1,-1.2492098E0,2.778563E-1,9.664154E-1,1.20739475E-1,8.4770584E-1,2.777637E0,1.6555694E-1,-1.3106782E0,-1.443574E-1,8.629156E-2,-5.9627485E-1,7.3643684E-2,6.1386806E-1,-1.4475954E-1,-4.8901418E-1],"categories":[],"categories_nodes":[],"categories_segments":[],"categories_sizes":[],"default_left":[0,0,0,0,0,0,0,0,0,0,0,0,0,0,0,0,0,0,0,0,0,0,0,0,0,0,0,0,0,0,0,0,0,0,0,0,0,0,0,0,0,0,0,0,0,0,0,0,0,0,0,0,0,0,0],"id":51,"left_children":[1,3,5,7,9,11,13,15,17,-1,19,21,-1,23,25,27,29,-1,-1,-1,-1,-1,31,33,35,37,39,41,-1,-1,-1,-1,-1,43,45,47,49,-1,-1,51,53,-1,-1,-1,-1,-1,-1,-1,-1,-1,-1,-1,-1,-1,-1],"loss_changes":[1.7744418E2,1.26467316E2,1.2094925E2,5.563336E1,4.3060446E0,3.521068E1,5.081891E1,3.826587E1,2.337153E0,0E0,7.4804974E-1,2.0296036E1,0E0,4.870733E1,2.4923195E2,2.6639893E1,3.3682385E-1,0E0,0E0,0E0,0E0,0E0,1.3514496E1,1.6952213E2,1.2557334E2,3.697357E1,1.4954986E1,2.4910645E1,0E0,0E0,0E0,0E0,0E0,2.6347336E1,2.9632373E2,7.584969E1,2.9626076E1,0E0,0E0,8.311362E0,8.86034E-1,0E0,0E0,0E0,0E0,0E0,0E0,0E0,0E0,0E0,0E0,0E0,0E0,0E0,0E0],"parents":[2147483647,0,0,1,1,2,2,3,3,4,4,5,5,6,6,7,7,8,8,10,10,11,11,13,13,14,14,15,15,16,16,22,22,23,23,24,24,25,25,26,26,27,27,33,33,34,34,35,35,36,36,39,39,40,40],"right_children":[2,4,6,8,10,12,14,16,18,-1,20,22,-1,24,26,28,30,-1,-1,-1,-1,-1,32,34,36,38,40,42,-1,-1,-1,-1,-1,44,46,48,50,-1,-1,52,54,-1,-1,-1,-1,-1,-1,-1,-1,-1,-1,-1,-1,-1,-1],"split_conditions":[3E0,1.8E2,5.2E1,9.46E2,9.82E2,1.078E3,1.139E3,2.57E2,2.62E2,-1.3217165E-1,6.87E2,9.8E1,2.1091604E0,7.68E2,4E0,1.131E3,7.8E1,-1.527642E-1,2.2053109E-1,1.4324148E-1,3.5704626E-4,-1.0721647E-1,1.64E2,7.44E2,8.42E2,3.36E2,7.93E2,2.74E2,-3.0830745E-2,4.8104938E-2,-1.12292685E-1,8.53055E-1,-8.5335106E-2,3.05E2,1.7E2,7.9E1,1.156E3,8.8548005E-1,3.09015E0,1.53E2,1.072E3,2.778563E-1,9.664154E-1,1.20739475E-1,8.4770584E-1,2.777637E0,1.6555694E-1,-1.3106782E0,-1.443574E-1,8.629156E-2,-5.9627485E-1,7.3643684E-2,6.1386806E-1,-1.4475954E-1,-4.8901418E-1],"split_indices":[7,1,6,5,6,5,5,0,0,0,5,0,0,6,7,6,1,0,0,0,0,0,0,6,6,4,6,2,0,0,0,0,0,0,1,0,6,0,0,0,6,0,0,0,0,0,0,0,0,0,0,0,0,0,0],"split_type":[0,0,0,0,0,0,0,0,0,0,0,0,0,0,0,0,0,0,0,0,0,0,0,0,0,0,0,0,0,0,0,0,0,0,0,0,0,0,0,0,0,0,0,0,0,0,0,0,0,0,0,0,0,0,0],"sum_hessian":[7.860443E2,1.1858157E2,6.674627E2,8.201119E1,3.6570385E1,2.1056383E1,6.464063E2,7.541399E1,6.5972095E0,6.272085E0,3.0298298E1,2.0000074E1,1.0563079E0,6.221021E2,2.4304218E1,7.146885E1,3.9451315E0,5.579885E0,1.0173243E0,2.654652E1,3.7517781E0,2.3799143E0,1.7620161E1,3.903466E2,2.3175554E2,4.512012E0,1.9792206E1,6.871399E1,2.7548633E0,1.0215167E0,2.923615E0,1.6306559E1,1.3136024E0,3.7394696E2,1.639962E1,1.9655554E1,2.1209999E2,2.3097277E0,2.2022843E0,1.5063784E1,4.7284226E0,6.176743E0,6.2537247E1,3.703725E2,3.5744658E0,5.0862293E0,1.1313391E1,8.838845E0,1.0816708E1,2.072048E2,4.895188E0,1.2734367E1,2.3294158E0,2.3216503E0,2.4067724E0],"tree_param":{"num_deleted":"0","num_feature":"10","num_nodes":"55","size_leaf_vector":"1"}},{"base_weights":[9.775264E-1,5.172322E-1,1.6308093E0,5.999027E-1,-7.082212E-1,7.474219E-1,2.8748586E0,4.020656E-1,9.0885776E-1,-1.218097E0,-2.3884855E-1,8.397481E0,5.4459035E-1,4.576273E0,1.0638056E0,-4.5998928E-1,5.2620876E-1,1.4747818E0,8.168242E-1,-2.3535101E-1,-5.441776E-1,8.6907044E-2,-3.980439E-1,-8.243459E-2,4.061092E0,3.5389206E0,3.6956045E-1,5.343337E0,-1.3429712E-1,2.3093672E0,-1.4827786E-1,-2.0753534E-1,-1.4662611E-1,1.2160652E0,3.861532E-1,6.569507E-1,2.0318265E0,-9.584422E-2,1.270734E-1,7.1658984E-2,-1.5765665E-1,6.2655196E0,-1.1355894E-1,7.386651E-1,4.060528E-2,3.4787467E0,7.151308E0,1.3117148E0,1.980547E0,-1.2957533E-1,6.329224E-2,2.5841025E-1,9.2611855E-1,1.469879E-1,-9.265524E-2,1.3507232E-1,7.858008E-1,1.3824373E0,-1.7260638E-1,2.7610908E0,5.244963E-1,1.5759005E-1,1.052657E0,-1.3514543E-1,2.18481E-1,1.8041043E0,-1.3600956E-1,2.5570245E0,-1.1571404E-1,9.9325436E-1,-1.6430456E-2],"categories":[],"categories_nodes":[],"categories_segments":[],"categories_sizes":[],"default_left":[0,0,0,0,0,0,0,0,0,0,0,0,0,0,0,0,0,0,0,0,0,0,0,0,0,0,0,0,0,0,0,0,0,0,0,0,0,0,0,0,0,0,0,0,0,0,0,0,0,0,0,0,0,0,0,0,0,0,0,0,0,0,0,0,0,0,0,0,0,0,0],"id":52,"left_children":[1,3,5,7,9,11,13,15,17,19,21,23,25,27,29,31,33,-1,35,-1,-1,37,39,-1,-1,41,43,45,-1,47,-1,49,-1,51,53,55,57,-1,-1,-1,-1,59,-1,61,63,65,67,69,-1,-1,-1,-1,-1,-1,-1,-1,-1,-1,-1,-1,-1,-1,-1,-1,-1,-1,-1,-1,-1,-1,-1],"loss_changes":[1.5535901E2,3.1446297E1,2.3331006E2,1.7201027E1,4.450061E0,1.9192867E2,2.6818256E2,1.9184103E1,3.7066536E1,9.670658E-1,6.340117E-1,1.4641777E2,6.3909267E1,1.772992E2,8.697096E1,6.4236164E-2,1.4524029E1,0E0,2.0050964E1,0E0,0E0,7.66768E-1,7.7047586E-1,0E0,0E0,7.452939E1,1.4380186E1,1.0812195E2,0E0,9.7348724E1,0E0,4.7346616E-1,0E0,1.441201E1,9.563524E0,3.8886795E1,8.5432556E1,0E0,0E0,0E0,0E0,3.753006E1,0E0,3.1179167E1,2.1877712E1,2.1572876E2,2.0063794E2,5.8461433E1,0E0,0E0,0E0,0E0,0E0,0E0,0E0,0E0,0E0,0E0,0E0,0E0,0E0,0E0,0E0,0E0,0E0,0E0,0E0,0E0,0E0,0E0,0E0],"parents":[2147483647,0,0,1,1,2,2,3,3,4,4,5,5,6,6,7,7,8,8,9,9,10,10,11,11,12,12,13,13,14,14,15,15,16,16,18,18,21,21,22,22,25,25,26,26,27,27,29,29,31,31,33,33,34,34,35,35,36,36,41,41,43,43,44,44,45,45,46,46,47,47],"right_children":[2,4,6,8,10,12,14,16,18,20,22,24,26,28,30,32,34,-1,36,-1,-1,38,40,-1,-1,42,44,46,-1,48,-1,50,-1,52,54,56,58,-1,-1,-1,-1,60,-1,62,64,66,68,70,-1,-1,-1,-1,-1,-1,-1,-1,-1,-1,-1,-1,-1,-1,-1,-1,-1,-1,-1,-1,-1,-1,-1],"split_conditions":[5.91E2,1.072E3,1.79E2,3.4E2,9.1E1,6.02E2,5E0,4.12E2,2.83E2,5E0,1.58E2,4E0,3.6E1,1.052E3,8.28E2,3E0,1.4E1,1.4747818E0,7E0,-2.3535101E-1,-5.441776E-1,1.23E2,1.18E2,-8.243459E-2,4.061092E0,2.4E2,2E0,9.06E2,-1.3429712E-1,8.19E2,-1.4827786E-1,2.74E2,-1.4662611E-1,4E0,2.99E2,6.77E2,1.84E3,-9.584422E-2,1.270734E-1,7.1658984E-2,-1.5765665E-1,5E0,-1.1355894E-1,1.039E3,6.87E2,7.93E2,1.072E3,3E0,1.980547E0,-1.2957533E-1,6.329224E-2,2.5841025E-1,9.2611855E-1,1.469879E-1,-9.265524E-2,1.3507232E-1,7.858008E-1,1.3824373E0,-1.7260638E-1,2.7610908E0,5.244963E-1,1.5759005E-1,1.052657E0,-1.3514543E-1,2.18481E-1,1.8041043E0,-1.3600956E-1,2.5570245E0,-1.1571404E-1,9.9325436E-1,-1.6430456E-2],"split_indices":[6,5,1,3,2,6,7,5,4,7,6,7,1,5,6,7,1,0,7,0,0,6,1,0,0,0,8,6,0,6,0,2,0,7,6,5,2,0,0,0,0,7,0,5,4,6,6,8,0,0,0,0,0,0,0,0,0,0,0,0,0,0,0,0,0,0,0,0,0,0,0],"split_type":[0,0,0,0,0,0,0,0,0,0,0,0,0,0,0,0,0,0,0,0,0,0,0,0,0,0,0,0,0,0,0,0,0,0,0,0,0,0,0,0,0,0,0,0,0,0,0,0,0,0,0,0,0,0,0,0,0,0,0,0,0,0,0,0,0,0,0,0,0,0,0],"sum_hessian":[5.1845905E2,3.0520645E2,2.1325261E2,2.8639627E2,1.8810162E1,1.2563863E2,8.7613976E1,1.7599841E2,1.1039787E2,8.251483E0,1.0558679E1,2.2015884E0,1.2343704E2,4.4387127E1,4.3226845E1,2.1814226E1,1.5418419E2,1.3018439E0,1.0909602E2,6.1168294E0,2.1346536E0,3.6151717E0,6.943507E0,1.1714481E0,1.0301404E0,5.7555084E0,1.1768153E2,3.8452538E1,5.9345922E0,2.3754566E1,1.9472279E1,3.07154E0,1.8742685E1,2.4723509E1,1.2946068E2,9.777165E1,1.1324371E1,1.6611252E0,1.9540464E0,1.0122657E0,5.9312415E0,3.0401416E0,2.715367E0,5.4869568E1,6.2811966E1,2.0369377E1,1.808316E1,2.03341E1,3.420465E0,1.9786536E0,1.0928866E0,2.2011091E1,2.7124171E0,1.1289378E2,1.6566895E1,8.956652E1,8.205138E0,5.3098984E0,6.0144734E0,1.2134279E0,1.8267137E0,5.2050198E1,2.819371E0,3.6844604E1,2.5967361E1,1.2063173E1,8.306203E0,1.518743E1,2.8957286E0,7.6781893E0,1.2655911E1],"tree_param":{"num_deleted":"0","num_feature":"10","num_nodes":"71","size_leaf_vector":"1"}},{"base_weights":[-4.6413484E-1,7.902711E-1,-1.5077282E-1,-1.1474497E-1,8.1795937E-1],"categories":[],"categories_nodes":[],"categories_segments":[],"categories_sizes":[],"default_left":[0,0,0,0,0],"id":53,"left_children":[1,3,-1,-1,-1],"loss_changes":[7.872307E0,1.2392147E1,0E0,0E0,0E0],"parents":[2147483647,0,0,1,1],"right_children":[2,4,-1,-1,-1],"split_conditions":[1.9E1,7.8E1,-1.5077282E-1,-1.1474497E-1,8.1795937E-1],"split_indices":[3,1,0,0,0],"split_type":[0,0,0,0,0],"sum_hessian":[1.5401863E2,3.998022E0,1.500206E2,2.9896894E0,1.0083327E0],"tree_param":{"num_deleted":"0","num_feature":"10","num_nodes":"5","size_leaf_vector":"1"}},{"base_weights":[-4.897433E-1,-1.6927682E-1,-1.5075506E-1,-1.2806565E-1,2.1833153E-1],"categories":[],"categories_nodes":[],"categories_segments":[],"categories_sizes":[],"default_left":[0,0,0,0,0],"id":54,"left_children":[1,3,-1,-1,-1],"loss_changes":[5.468521E-1,2.0265362E0,0E0,0E0,0E0],"parents":[2147483647,0,0,1,1],"right_children":[2,4,-1,-1,-1],"split_conditions":[2.6E1,6.89E2,-1.5075506E-1,-1.2806565E-1,2.1833153E-1],"split_indices":[1,2,0,0,0],"split_type":[0,0,0,0,0],"sum_hessian":[1.5336917E2,6.4251575E0,1.46944E2,5.3988676E0,1.0262899E0],"tree_param":{"num_deleted":"0","num_feature":"10","num_nodes":"5","size_leaf_vector":"1"}},{"base_weights":[1.564062E-1,3.7980458E-1,-5.54043E-1,5.468074E-1,-6.735143E-2,-1.5096363E-1,-9.622139E-1,3.2755834E-1,8.716981E-1,-1.578994E-1,4.4936594E-1,-3.658761E-1,-1.1412939E-1,-1.537278E-1,4.4259182E-1,7.2573113E-1,7.8801924E-1,6.49463E-1,-1.3414374E-1,-1.2972559E-1,4.975162E-1,7.903076E-1,-1.3879997E-1,3.9848903E-1,2.2966005E-1,1.5908945E-1,-1.1609136E-1,1.7192459E-1,3.2231003E-1,-7.699944E-2,1.4635085E-1],"categories":[],"categories_nodes":[],"categories_segments":[],"categories_sizes":[],"default_left":[0,0,0,0,0,0,0,0,0,0,0,0,0,0,0,0,0,0,0,0,0,0,0,0,0,0,0,0,0,0,0],"id":55,"left_children":[1,3,5,7,9,-1,11,13,15,-1,17,-1,-1,-1,19,21,-1,23,-1,-1,25,27,-1,29,-1,-1,-1,-1,-1,-1,-1],"loss_changes":[5.7440838E1,2.0566975E1,1.3139706E0,1.3980408E1,1.8177267E1,0E0,8.0901E-1,1.1935988E1,1.861195E1,0E0,6.7708273E0,0E0,0E0,0E0,5.3632812E0,6.146351E0,0E0,5.671444E-1,0E0,0E0,3.1412163E0,3.8155174E0,0E0,8.0153096E-1,0E0,0E0,0E0,0E0,0E0,0E0,0E0],"parents":[2147483647,0,0,1,1,2,2,3,3,4,4,6,6,7,7,8,8,10,10,14,14,15,15,17,17,20,20,21,21,23,23],"right_children":[2,4,6,8,10,-1,12,14,16,-1,18,-1,-1,-1,20,22,-1,24,-1,-1,26,28,-1,30,-1,-1,-1,-1,-1,-1,-1],"split_conditions":[3.29E2,7.8E1,1.131E3,8.46E2,3E0,-1.5096363E-1,1.142E3,6.25E2,3.11E2,-1.578994E-1,4.12E2,-3.658761E-1,-1.1412939E-1,-1.537278E-1,5.37E2,1.025E3,7.8801924E-1,3.81E2,-1.3414374E-1,-1.2972559E-1,7.15E2,7.3E1,-1.3879997E-1,4E0,2.2966005E-1,1.5908945E-1,-1.1609136E-1,1.7192459E-1,3.2231003E-1,-7.699944E-2,1.4635085E-1],"split_indices":[3,1,6,5,9,0,6,2,3,0,5,0,0,0,5,5,0,5,0,0,5,1,0,9,0,0,0,0,0,0,0],"split_type":[0,0,0,0,0,0,0,0,0,0,0,0,0,0,0,0,0,0,0,0,0,0,0,0,0,0,0,0,0,0,0],"sum_hessian":[3.595901E2,2.7392172E2,8.566837E1,1.9927432E2,7.464739E1,7.816684E1,7.501535E0,1.2018019E2,7.909414E1,3.9522495E1,3.5124897E1,4.440723E0,3.060812E0,1.40597925E1,1.061204E2,7.432593E1,4.7682123E0,2.8940977E1,6.1839194E0,5.8618145E0,1.0025858E2,7.0812996E1,3.5129352E0,1.0553902E1,1.8387074E1,9.706162E1,3.1969619E0,4.1836933E1,2.8976057E1,1.0418296E0,9.512073E0],"tree_param":{"num_deleted":"0","num_feature":"10","num_nodes":"31","size_leaf_vector":"1"}},{"base_weights":[-1.462931E-1,4.4709206E-1,-4.1855213E-1,7.020685E-1,-1.4538972E-1,-1.5063389E-1,6.858394E-1,-1.3457036E-1,8.373652E-1,-1.3891442E-1,1.236193E0,8.092672E-1,7.355893E-1,1.5878448E-1,3.149488E-1],"categories":[],"categories_nodes":[],"categories_segments":[],"categories_sizes":[],"default_left":[0,0,0,0,0,0,0,0,0,0,0,0,0,0,0],"id":56,"left_children":[1,3,5,7,-1,-1,9,-1,11,-1,-1,-1,13,-1,-1],"loss_changes":[3.3270103E1,1.5755976E1,1.3346159E1,8.37056E0,0E0,0E0,4.2683556E1,0E0,6.7816124E0,0E0,0E0,0E0,2.3794975E0,0E0,0E0],"parents":[2147483647,0,0,1,1,2,2,3,3,6,6,8,8,12,12],"right_children":[2,4,6,8,-1,-1,10,-1,12,-1,-1,-1,14,-1,-1],"split_conditions":[1.39E2,1.13E2,2.94E2,8.3E1,-1.4538972E-1,-1.5063389E-1,4E0,-1.3457036E-1,1.42E2,-1.3891442E-1,1.236193E0,8.092672E-1,1.8E2,1.5878448E-1,3.149488E-1],"split_indices":[6,0,1,6,0,0,8,0,1,0,0,0,5,0,0],"split_type":[0,0,0,0,0,0,0,0,0,0,0,0,0,0,0],"sum_hessian":[2.0377905E2,6.388982E1,1.3988922E2,5.0355873E1,1.3533944E1,1.3055638E2,9.332844E0,5.054471E0,4.5301403E1,7.6419287E0,1.6909149E0,1.026933E0,4.427447E1,2.83477E1,1.592677E1],"tree_param":{"num_deleted":"0","num_feature":"10","num_nodes":"15","size_leaf_vector":"1"}},{"base_weights":[-3.2340935E-1,1.1993356E-1,-4.9485615E-1,-6.616799E-1,4.73867E-1,-1.5059377E-1,-2.8620338E-1,-1.4231928E-1,-5.433295E-1,-1.07488744E-1,1.6282062E-1,7.174763E-2,-1.2613119E-1],"categories":[],"categories_nodes":[],"categories_segments":[],"categories_sizes":[],"default_left":[0,0,0,0,0,0,0,0,0,0,0,0,0],"id":57,"left_children":[1,3,5,7,9,-1,11,-1,-1,-1,-1,-1,-1],"loss_changes":[1.4316847E1,1.5006954E1,5.7655334E-2,2.794343E0,2.3230467E0,0E0,5.799653E-1,0E0,0E0,0E0,0E0,0E0,0E0],"parents":[2147483647,0,0,1,1,2,2,3,3,4,4,6,6],"right_children":[2,4,6,8,10,-1,12,-1,-1,-1,-1,-1,-1],"split_conditions":[1.54E2,3.83E2,1.145E3,1.39E2,1.39E2,-1.5059377E-1,3.29E2,-1.4231928E-1,-5.433295E-1,-1.07488744E-1,1.6282062E-1,7.174763E-2,-1.2613119E-1],"split_indices":[6,4,5,6,6,0,3,0,0,0,0,0,0],"split_type":[0,0,0,0,0,0,0,0,0,0,0,0,0],"sum_hessian":[1.8657462E2,5.2113976E1,1.3446063E2,1.5972155E1,3.614182E1,1.286625E2,5.7981353E0,1.4949123E1,1.0230318E0,2.4412053E0,3.3700615E1,1.0208998E0,4.7772355E0],"tree_param":{"num_deleted":"0","num_feature":"10","num_nodes":"13","size_leaf_vector":"1"}},{"base_weights":[-4.896913E-1,-1.5079367E-1,2.2036226E-1],"categories":[],"categories_nodes":[],"categories_segments":[],"categories_sizes":[],"default_left":[0,0,0],"id":58,"left_children":[1,-1,-1],"loss_changes":[2.8136024E0,0E0,0E0],"parents":[2147483647,0,0],"right_children":[2,-1,-1],"split_conditions":[6E0,-1.5079367E-1,2.2036226E-1],"split_indices":[9,0,0],"split_type":[0,0,0],"sum_hessian":[1.531321E2,1.5211192E2,1.0201592E0],"tree_param":{"num_deleted":"0","num_feature":"10","num_nodes":"3","size_leaf_vector":"1"}},{"base_weights":[-4.5184144E-1,-1.5073018E-1,3.0421102E-1,7.229197E-1,-1.3555098E-1],"categories":[],"categories_nodes":[],"categories_segments":[],"categories_sizes":[],"default_left":[0,0,0,0,0],"id":59,"left_children":[1,-1,3,-1,-1],"loss_changes":[6.1150665E0,0E0,1.764294E1,0E0,0E0],"parents":[2147483647,0,0,2,2],"right_children":[2,-1,4,-1,-1],"split_conditions":[5E0,-1.5073018E-1,2.27E2,7.229197E-1,-1.3555098E-1],"split_indices":[8,0,6,0,0],"split_type":[0,0,0,0,0],"sum_hessian":[1.548728E2,1.4547365E2,9.399147E0,1.9054296E0,7.4937177E0],"tree_param":{"num_deleted":"0","num_feature":"10","num_nodes":"5","size_leaf_vector":"1"}},{"base_weights":[-4.9617428E-1],"categories":[],"categories_nodes":[],"categories_segments":[],"categories_sizes":[],"default_left":[0],"id":60,"left_children":[-1],"loss_changes":[0E0],"parents":[2147483647],"right_children":[-1],"split_conditions":[-1.4885229E-1],"split_indices":[0],"split_type":[0],"sum_hessian":[1.5307275E2],"tree_param":{"num_deleted":"0","num_feature":"10","num_nodes":"1","size_leaf_vector":"1"}},{"base_weights":[1.4866367E-1,3.9538357E0,4.2580973E-2,-8.878742E-2,5.223794E0,2.3348427E-3,2.066622E0,2.427607E0,7.2019756E-1,-1.4881493E-1,3.466039E-1,-1.0777847E-1,1.5743442E0,-1.2502003E0,-8.4625036E-2,6.428491E-1,-9.959434E-2,-1.8301737E0,-1.2074323E-1,3.056836E-1,-2.898282E-1,3.3397362E-1,3.899363E-1,-3.1604645E-1,8.763558E-1,-7.848715E-2,-6.627135E-1,-1.3934058E-1,1.590057E-1,-1.18979655E-1,1.1886872E-1,1.6477887E-1,-1.3989091E-1,-1.5545365E-2,-1.4109989E-1,-1.04749806E-1,5.573952E-1],"categories":[],"categories_nodes":[],"categories_segments":[],"categories_sizes":[],"default_left":[0,0,0,0,0,0,0,0,0,0,0,0,0,0,0,0,0,0,0,0,0,0,0,0,0,0,0,0,0,0,0,0,0,0,0,0,0],"id":61,"left_children":[1,3,5,-1,7,9,11,-1,-1,13,15,-1,-1,17,19,21,23,25,-1,27,29,31,-1,33,35,-1,-1,-1,-1,-1,-1,-1,-1,-1,-1,-1,-1],"loss_changes":[9.466537E1,3.5877098E1,1.8696064E1,0E0,2.0665314E1,1.1816821E1,3.6417427E1,0E0,0E0,1.1051429E1,9.221937E0,0E0,0E0,3.5007563E0,1.2118278E1,8.041826E0,6.299634E0,2.2957058E0,0E0,9.272164E0,7.4056835E0,5.383214E0,0E0,9.5687747E-1,7.1935635E0,0E0,0E0,0E0,0E0,0E0,0E0,0E0,0E0,0E0,0E0,0E0,0E0],"parents":[2147483647,0,0,1,1,2,2,4,4,5,5,6,6,9,9,10,10,13,13,14,14,15,15,16,16,17,17,19,19,20,20,21,21,23,23,24,24],"right_children":[2,4,6,-1,8,10,12,-1,-1,14,16,-1,-1,18,20,22,24,26,-1,28,30,32,-1,34,36,-1,-1,-1,-1,-1,-1,-1,-1,-1,-1,-1,-1],"split_conditions":[1.2E1,6E0,1.156E3,-8.878742E-2,4.62E2,2.4E2,6.21E2,2.427607E0,7.2019756E-1,4.6E1,2.51E2,-1.0777847E-1,1.5743442E0,3E0,5.2E1,2.15E2,9.44E2,4E0,-1.2074323E-1,2E0,1.052E3,1.04E2,3.899363E-1,4E0,4E0,-7.848715E-2,-6.627135E-1,-1.3934058E-1,1.590057E-1,-1.18979655E-1,1.1886872E-1,1.6477887E-1,-1.3989091E-1,-1.5545365E-2,-1.4109989E-1,-1.04749806E-1,5.573952E-1],"split_indices":[0,0,6,0,6,0,5,0,0,1,0,0,0,8,1,3,5,7,0,9,5,6,0,7,7,0,0,0,0,0,0,0,0,0,0,0,0],"split_type":[0,0,0,0,0,0,0,0,0,0,0,0,0,0,0,0,0,0,0,0,0,0,0,0,0,0,0,0,0,0,0,0,0,0,0,0,0],"sum_hessian":[2.3393301E2,5.361065E0,2.2857195E2,1.4099058E0,3.951159E0,2.2509726E2,3.4746912E0,1.0341582E0,2.917001E0,1.5681575E2,6.82815E1,2.4746573E0,1.000034E0,7.6185346E0,1.4919722E2,4.077137E1,2.7510134E1,3.8355181E0,3.7830164E0,5.1242073E1,9.795514E1,2.875833E1,1.20130415E1,2.3069752E1,4.440383E0,1.0750947E0,2.7604234E0,1.1317665E1,3.992441E1,8.5128555E1,1.2826585E1,2.2909033E1,5.849295E0,8.997182E0,1.407257E1,2.261408E0,2.1789746E0],"tree_param":{"num_deleted":"0","num_feature":"10","num_nodes":"37","size_leaf_vector":"1"}},{"base_weights":[6.327654E-1,1.4526796E0,2.518123E-1,9.03228E-1,6.583399E0,6.399134E-2,3.4047582E0,5.4886377E-1,2.205769E0,-1.06288664E-1,9.865047E0,-8.775366E-1,2.9485506E-1,1.6565545E-1,5.816154E0,-3.8475E-1,6.845351E-1,5.052717E-1,3.2874467E0,2.061218E-1,-1.22461066E-1,3.3923862E0,3.6365073E0,-3.8729912E-1,-1.1694574E0,4.9855426E-1,-1.128512E0,7.2938573E-1,-1.3398941E-1,2.3318555E0,2.0264373E0,-1.4172715E-1,5.12861E-2,5.898635E-1,4.9112856E-1,1.9589956E-1,-1.1783304E-1,5.6503374E-2,1.5826811E0,1.9230749E-1,-1.4656664E-1,-3.3441865E-1,-1.342827E0,5.754812E-1,-1.2666905E0,-1.3267059E0,7.3261485E-2,-8.5808344E-2,1.2263706E0,1.253042E-1,6.871937E-1,2.3491238E-1,-1.0351225E-1,-1.3184303E-1,6.6817865E-2,-4.247224E-1,-1.256149E-1,6.6337234E-1,1.4928575E-1,-1.3851629E-1,-1.0345656E0,-7.1433954E-2,-4.2686608E-1,2.6968864E-1,-1.226676E-1,6.849394E-2,-9.150897E-2],"categories":[],"categories_nodes":[],"categories_segments":[],"categories_sizes":[],"default_left":[0,0,0,0,0,0,0,0,0,0,0,0,0,0,0,0,0,0,0,0,0,0,0,0,0,0,0,0,0,0,0,0,0,0,0,0,0,0,0,0,0,0,0,0,0,0,0,0,0,0,0,0,0,0,0,0,0,0,0,0,0,0,0,0,0,0,0],"id":62,"left_children":[1,3,5,7,9,11,13,15,17,19,21,23,25,27,29,31,33,35,-1,-1,-1,-1,37,39,41,43,45,-1,-1,-1,47,-1,-1,-1,49,-1,-1,-1,-1,51,-1,53,55,57,59,61,63,65,-1,-1,-1,-1,-1,-1,-1,-1,-1,-1,-1,-1,-1,-1,-1,-1,-1,-1,-1],"loss_changes":[1.642525E2,4.6478952E2,2.1359296E2,6.894334E1,3.521552E2,7.454788E1,1.5743474E2,1.5566219E1,4.733326E2,1.7782083E0,5.5405518E1,9.214504E0,8.035951E1,1.4519341E1,7.023505E1,8.5878754E-1,2.5271626E1,3.9696417E0,0E0,0E0,0E0,0E0,1.8755081E1,1.6613746E0,5.608818E0,3.3517624E1,8.377033E0,0E0,0E0,0E0,2.3433365E1,0E0,0E0,0E0,1.1374746E1,0E0,0E0,0E0,0E0,1.7587372E0,0E0,5.9691757E-1,1.7196655E0,2.8455894E1,1.6665447E1,2.7910843E0,2.704106E0,3.1739002E-1,0E0,0E0,0E0,0E0,0E0,0E0,0E0,0E0,0E0,0E0,0E0,0E0,0E0,0E0,0E0,0E0,0E0,0E0,0E0],"parents":[2147483647,0,0,1,1,2,2,3,3,4,4,5,5,6,6,7,7,8,8,9,9,10,10,11,11,12,12,13,13,14,14,15,15,16,16,17,17,22,22,23,23,24,24,25,25,26,26,30,30,34,34,39,39,41,41,42,42,43,43,44,44,45,45,46,46,47,47],"right_children":[2,4,6,8,10,12,14,16,18,20,22,24,26,28,30,32,34,36,-1,-1,-1,-1,38,40,42,44,46,-1,-1,-1,48,-1,-1,-1,50,-1,-1,-1,-1,52,-1,54,56,58,60,62,64,66,-1,-1,-1,-1,-1,-1,-1,-1,-1,-1,-1,-1,-1,-1,-1,-1,-1,-1,-1],"split_conditions":[5.26E2,4.13E2,1.072E3,2.98E2,1.57E2,3.17E2,1.61E2,1E2,2E0,1.37E2,3E0,7.93E2,6E0,1.107E3,1.131E3,1.249E3,1.08E2,2.2E1,3.2874467E0,2.061218E-1,-1.22461066E-1,3.3923862E0,1.042E3,2.76E2,1.48E2,1.037E3,8.65E2,7.2938573E-1,-1.3398941E-1,2.3318555E0,7.25E2,-1.4172715E-1,5.12861E-2,5.898635E-1,6.3E2,1.9589956E-1,-1.1783304E-1,5.6503374E-2,1.5826811E0,4E0,-1.4656664E-1,7.3E1,9.22E2,2.74E2,4E0,1.68E2,1.042E3,6.21E2,1.2263706E0,1.253042E-1,6.871937E-1,2.3491238E-1,-1.0351225E-1,-1.3184303E-1,6.6817865E-2,-4.247224E-1,-1.256149E-1,6.6337234E-1,1.4928575E-1,-1.3851629E-1,-1.0345656E0,-7.1433954E-2,-4.2686608E-1,2.6968864E-1,-1.226676E-1,6.849394E-2,-9.150897E-2],"split_indices":[6,6,6,1,1,3,1,6,8,3,8,6,7,6,6,2,6,5,0,0,0,0,2,5,1,6,5,0,0,0,5,0,0,0,4,0,0,0,0,7,0,1,6,4,8,1,5,5,0,0,0,0,0,0,0,0,0,0,0,0,0,0,0,0,0,0,0],"split_type":[0,0,0,0,0,0,0,0,0,0,0,0,0,0,0,0,0,0,0,0,0,0,0,0,0,0,0,0,0,0,0,0,0,0,0,0,0,0,0,0,0,0,0,0,0,0,0,0,0,0,0,0,0,0,0,0,0,0,0,0,0,0,0,0,0,0,0],"sum_hessian":[5.2603345E2,1.65982E2,3.6005148E2,1.5098859E2,1.4993409E1,3.4077197E2,1.9279491E1,1.1981387E2,3.1174715E1,5.252903E0,9.740506E0,6.655218E1,2.7421982E2,8.683753E0,1.0595737E1,1.4969094E1,1.0484478E2,2.6988802E1,4.185913E0,1.0963187E0,4.1565843E0,7.2463155E0,2.4941907E0,2.5707315E1,4.084486E1,2.4045747E2,3.376233E1,1.2154446E0,7.468309E0,6.2946577E0,4.3010798E0,1.305868E1,1.9104141E0,1.2544961E1,9.229982E1,2.3410671E1,3.5781307E0,1.1628382E0,1.3313526E0,3.6894026E0,2.2017914E1,7.5257597E0,3.3319103E1,2.310621E2,9.395369E0,2.8893343E1,4.868985E0,2.5977316E0,1.7033482E0,8.986409E1,2.4357255E0,1.5396055E0,2.1497972E0,6.509495E0,1.0162649E0,3.0389313E1,2.929788E0,9.25384E0,2.2180827E2,7.7483373E0,1.6470312E0,2.6277468E0,2.6265596E1,1.4763035E0,3.3926816E0,1.0507069E0,1.5470246E0],"tree_param":{"num_deleted":"0","num_feature":"10","num_nodes":"67","size_leaf_vector":"1"}},{"base_weights":[-4.767134E-1,-1.5079159E-1,4.5992577E-1],"categories":[],"categories_nodes":[],"categories_segments":[],"categories_sizes":[],"default_left":[0,0,0],"id":63,"left_children":[1,-1,-1],"loss_changes":[8.80109E0,0E0,0E0],"parents":[2147483647,0,0],"right_children":[2,-1,-1],"split_conditions":[1.1E1,-1.5079159E-1,4.5992577E-1],"split_indices":[7,0,0],"split_type":[0,0,0],"sum_hessian":[1.5312328E2,1.5191359E2,1.209686E0],"tree_param":{"num_deleted":"0","num_feature":"10","num_nodes":"3","size_leaf_vector":"1"}},{"base_weights":[-4.5727736E-1,2.1649654E-1,-1.50718E-1,-1.356801E-1,9.4425577E-1],"categories":[],"categories_nodes":[],"categories_segments":[],"categories_sizes":[],"default_left":[0,0,0,0,0],"id":64,"left_children":[1,3,-1,-1,-1],"loss_changes":[4.7968636E0,2.1765306E1,0E0,0E0,0E0],"parents":[2147483647,0,0,1,1],"right_children":[2,4,-1,-1,-1],"split_conditions":[4.6E1,9.8E2,-1.50718E-1,-1.356801E-1,9.4425577E-1],"split_indices":[1,2,0,0,0],"split_type":[0,0,0,0,0],"sum_hessian":[1.5322408E2,9.377612E0,1.4384647E2,8.324036E0,1.0535762E0],"tree_param":{"num_deleted":"0","num_feature":"10","num_nodes":"5","size_leaf_vector":"1"}},{"base_weights":[-2.8444654E-1,2.2949725E-1,-4.4990748E-1,-4.370248E-1,5.7986224E-1,-1.504323E-1,-1.3807815E-1,5.6281716E-2,-1.502531E-1,-1.3756295E-1,1.1305186E0,1.546231E0,-1.4326817E-1,-9.111804E-2,3.816223E-1,9.558243E-1,-9.740076E-2],"categories":[],"categories_nodes":[],"categories_segments":[],"categories_sizes":[],"default_left":[0,0,0,0,0,0,0,0,0,0,0,0,0,0,0,0,0],"id":65,"left_children":[1,3,5,7,9,-1,11,-1,-1,-1,13,15,-1,-1,-1,-1,-1],"loss_changes":[1.5017804E1,1.0382788E1,2.0682182E0,7.124469E-1,1.7020996E1,0E0,1.2313947E1,0E0,0E0,0E0,4.273922E0,1.2176951E1,0E0,0E0,0E0,0E0,0E0],"parents":[2147483647,0,0,1,1,2,2,3,3,4,4,6,6,10,10,11,11],"right_children":[2,4,6,8,10,-1,12,-1,-1,-1,14,16,-1,-1,-1,-1,-1],"split_conditions":[5.2E1,4.9E1,4E0,1.77E2,3E0,-1.504323E-1,1.97E2,5.6281716E-2,-1.502531E-1,-1.3756295E-1,4.32E2,3.64E2,-1.4326817E-1,-9.111804E-2,3.816223E-1,9.558243E-1,-9.740076E-2],"split_indices":[1,1,8,0,8,0,3,0,0,0,5,5,0,0,0,0,0],"split_type":[0,0,0,0,0,0,0,0,0,0,0,0,0,0,0,0,0],"sum_hessian":[1.7438766E2,4.2375786E1,1.3201187E2,1.4515213E1,2.7860573E1,1.12767624E2,1.9244253E1,1.1657461E0,1.3349467E1,9.71247E0,1.8148104E1,2.63186E0,1.6612394E1,1.527349E0,1.6620754E1,1.027919E0,1.6039411E0],"tree_param":{"num_deleted":"0","num_feature":"10","num_nodes":"17","size_leaf_vector":"1"}},{"base_weights":[-5.557714E-3,1.621124E-1,-4.8866642E-1,3.819324E-2,1.1343477E0,-1.5086152E-1,6.836599E-2,2.6583052E-1,-3.3027962E-1,-1.3428502E-1,1.8409547E0,4.1597083E-1,-1.1735704E-1,-7.050022E-1,2.618282E-1,2.7415764E0,9.69964E-3,-3.278632E-1,4.9610358E-1,-7.779945E-1,2.2816847E-1,-1.4775027E-1,-9.962551E-1,7.301915E-1,-1.3846287E-1,3.1590285E0,2.8949078E-2,-1.1730616E-1,1.8800946E-1,-1.3088799E-1,5.4959904E-2,1.629503E-1,-1.3513282E-1,-1.3711871E-1,1.6564068E-1,6.0522026E-1,1.5261814E-1,1.0468147E0,7.216496E-2],"categories":[],"categories_nodes":[],"categories_segments":[],"categories_sizes":[],"default_left":[0,0,0,0,0,0,0,0,0,0,0,0,0,0,0,0,0,0,0,0,0,0,0,0,0,0,0,0,0,0,0,0,0,0,0,0,0,0,0],"id":66,"left_children":[1,3,5,7,9,-1,-1,11,13,-1,15,17,19,21,23,25,27,29,31,-1,33,-1,-1,35,-1,37,-1,-1,-1,-1,-1,-1,-1,-1,-1,-1,-1,-1,-1],"loss_changes":[2.206714E1,2.4324697E1,8.290062E-1,1.5221913E1,2.634456E1,0E0,0E0,6.4971566E0,1.5571005E1,0E0,2.6323849E1,4.9757853E0,2.8252872E1,2.2122591E1,9.69012E0,1.1517006E1,1.7954496E0,5.4847056E-1,3.509819E0,0E0,6.7550974E0,0E0,0E0,3.861003E0,0E0,8.045509E0,0E0,0E0,0E0,0E0,0E0,0E0,0E0,0E0,0E0,0E0,0E0,0E0,0E0],"parents":[2147483647,0,0,1,1,2,2,3,3,4,4,7,7,8,8,10,10,11,11,12,12,13,13,14,14,15,15,16,16,17,17,18,18,20,20,23,23,25,25],"right_children":[2,4,6,8,10,-1,-1,12,14,-1,16,18,20,22,24,26,28,30,32,-1,34,-1,-1,36,-1,38,-1,-1,-1,-1,-1,-1,-1,-1,-1,-1,-1,-1,-1],"split_conditions":[2E0,5E0,6E0,2.83E2,1.64E2,-1.5086152E-1,6.836599E-2,8.79E2,8.92E2,-1.3428502E-1,2.34E2,1.43E2,9.44E2,8.79E2,9.32E2,1.041E3,1.055E3,4E0,1.047E3,-7.779945E-1,8.96E2,-1.4775027E-1,-9.962551E-1,6.9E1,-1.3846287E-1,5.76E2,2.8949078E-2,-1.1730616E-1,1.8800946E-1,-1.3088799E-1,5.4959904E-2,1.629503E-1,-1.3513282E-1,-1.3711871E-1,1.6564068E-1,6.0522026E-1,1.5261814E-1,1.0468147E0,7.216496E-2],"split_indices":[9,7,9,4,0,0,0,5,5,0,0,1,5,5,5,2,6,7,6,0,6,0,0,0,0,5,0,0,0,0,0,0,0,0,0,0,0,0,0],"split_type":[0,0,0,0,0,0,0,0,0,0,0,0,0,0,0,0,0,0,0,0,0,0,0,0,0,0,0,0,0,0,0,0,0,0,0,0,0,0,0],"sum_hessian":[2.7044614E2,2.0126021E2,6.9185936E1,1.7942973E2,2.1830471E1,6.813344E1,1.0525001E0,1.1108288E2,6.8346855E1,6.853426E0,1.4977046E1,7.974981E1,3.1333075E1,4.1740326E1,2.6606531E1,9.706319E0,5.2707267E0,7.455205E0,7.22946E1,3.0404527E0,2.8292622E1,3.9703262E1,2.0370634E0,1.6144182E1,1.046235E1,8.215438E0,1.4908812E0,3.4174557E0,1.8532711E0,6.2710123E0,1.1841924E0,6.9276215E1,3.018386E0,8.950459E0,1.9342163E1,1.1794627E0,1.4964719E1,7.204335E0,1.0111028E0],"tree_param":{"num_deleted":"0","num_feature":"10","num_nodes":"39","size_leaf_vector":"1"}},{"base_weights":[-5.026615E-1],"categories":[],"categories_nodes":[],"categories_segments":[],"categories_sizes":[],"default_left":[0],"id":67,"left_children":[-1],"loss_changes":[0E0],"parents":[2147483647],"right_children":[-1],"split_conditions":[-1.5079847E-1],"split_indices":[0],"split_type":[0],"sum_hessian":[1.5302097E2],"tree_param":{"num_deleted":"0","num_feature":"10","num_nodes":"1","size_leaf_vector":"1"}},{"base_weights":[-9.961063E-2,3.9086357E-1,-4.125447E-1,2.8111205E-1,2.515793E0,-4.545202E-1,2.3118252E-1,4.030996E-1,-1.6848908E-1,1.1242955E0,-8.199989E-2,1.733229E-1,-4.6942994E-1,-3.1493565E-1,6.616326E-1,-9.5385724E-1,5.0226325E-1,-4.8478034E-1,-1.10014826E-1,-1.2948346E-1,5.546623E-2,-4.9645162E-1,-6.206092E-2,-4.5687657E-2,6.625965E-1,-1.4776379E-1,-2.6391926E-1,-1.2228046E-1,2.0774569E-1,7.012449E-2,-8.7011024E-2,1.1590951E-1,-9.808994E-2,2.1584658E-1,2.62701E-2,6.2297728E-2,-1.2249012E-1],"categories":[],"categories_nodes":[],"categories_segments":[],"categories_sizes":[],"default_left":[0,0,0,0,0,0,0,0,0,0,0,0,0,0,0,0,0,0,0,0,0,0,0,0,0,0,0,0,0,0,0,0,0,0,0,0,0],"id":68,"left_children":[1,3,5,7,9,11,13,15,-1,-1,-1,-1,17,19,-1,21,23,25,27,-1,-1,-1,29,31,33,-1,35,-1,-1,-1,-1,-1,-1,-1,-1,-1,-1],"loss_changes":[3.3466225E1,1.9123674E1,3.6976833E0,8.6545315E0,1.4940798E1,2.1974506E0,1.0184562E1,1.0194136E1,0E0,0E0,0E0,0E0,6.3038445E-1,5.329083E-1,0E0,3.186574E0,5.9988155E0,7.334328E-2,1.8033893E0,0E0,0E0,0E0,2.940241E-1,2.1089466E0,1.6585178E0,0E0,5.0565153E-1,0E0,0E0,0E0,0E0,0E0,0E0,0E0,0E0,0E0,0E0],"parents":[2147483647,0,0,1,1,2,2,3,3,4,4,5,5,6,6,7,7,12,12,13,13,15,15,16,16,17,17,18,18,22,22,23,23,24,24,26,26],"right_children":[2,4,6,8,10,12,14,16,-1,-1,-1,-1,18,20,-1,22,24,26,28,-1,-1,-1,30,32,34,-1,36,-1,-1,-1,-1,-1,-1,-1,-1,-1,-1],"split_conditions":[1.67E2,1.095E3,5E0,9.2E1,1.126E3,1.2E1,2.71E2,1.2E1,-1.6848908E-1,1.1242955E0,-8.199989E-2,1.733229E-1,1.133E3,1.052E3,6.616326E-1,3.2E1,2E0,1.145E3,4.79E2,-1.2948346E-1,5.546623E-2,-4.9645162E-1,6.03E2,7E0,8.79E2,-1.4776379E-1,3.38E2,-1.2228046E-1,2.0774569E-1,7.012449E-2,-8.7011024E-2,1.1590951E-1,-9.808994E-2,2.1584658E-1,2.62701E-2,6.2297728E-2,-1.2249012E-1],"split_indices":[3,5,8,1,5,0,0,0,0,0,0,0,6,5,0,5,8,5,3,0,0,0,5,3,5,0,3,0,0,0,0,0,0,0,0,0,0],"split_type":[0,0,0,0,0,0,0,0,0,0,0,0,0,0,0,0,0,0,0,0,0,0,0,0,0,0,0,0,0,0,0,0,0,0,0,0,0],"sum_hessian":[2.159902E2,8.403294E1,1.3195726E2,8.098253E1,3.0504138E0,1.2415539E2,7.80187E0,7.119822E1,9.784312E0,1.8775162E0,1.1728976E0,1.2302579E0,1.22925125E2,6.7697153E0,1.0321546E0,4.261722E0,6.69365E1,1.1755559E2,5.369538E0,5.599152E0,1.170563E0,